{"learner":{"attributes":{"scikit_learn":"{\"_estimator_type\": \"classifier\"}"},"feature_names":[],"feature_types":[],"gradient_booster":{"model":{"gbtree_model_param":{"num_parallel_tree":"1","num_trees":"200"},"iteration_indptr":[0,1,2,3,4,5,6,7,8,9,10,11,12,13,14,15,16,17,18,19,20,21,22,23,24,25,26,27,28,29,30,31,32,33,34,35,36,37,38,39,40,41,42,43,44,45,46,47,48,49,50,51,52,53,54,55,56,57,58,59,60,61,62,63,64,65,66,67,68,69,70,71,72,73,74,75,76,77,78,79,80,81,82,83,84,85,86,87,88,89,90,91,92,93,94,95,96,97,98,99,100,101,102,103,104,105,106,107,108,109,110,111,112,113,114,115,116,117,118,119,120,121,122,123,124,125,126,127,128,129,130,131,132,133,134,135,136,137,138,139,140,141,142,143,144,145,146,147,148,149,150,151,152,153,154,155,156,157,158,159,160,161,162,163,164,165,166,167,168,169,170,171,172,173,174,175,176,177,178,179,180,181,182,183,184,185,186,187,188,189,190,191,192,193,194,195,196,197,198,199,200],"tree_info":[0,0,0,0,0,0,0,0,0,0,0,0,0,0,0,0,0,0,0,0,0,0,0,0,0,0,0,0,0,0,0,0,0,0,0,0,0,0,0,0,0,0,0,0,0,0,0,0,0,0,0,0,0,0,0,0,0,0,0,0,0,0,0,0,0,0,0,0,0,0,0,0,0,0,0,0,0,0,0,0,0,0,0,0,0,0,0,0,0,0,0,0,0,0,0,0,0,0,0,0,0,0,0,0,0,0,0,0,0,0,0,0,0,0,0,0,0,0,0,0,0,0,0,0,0,0,0,0,0,0,0,0,0,0,0,0,0,0,0,0,0,0,0,0,0,0,0,0,0,0,0,0,0,0,0,0,0,0,0,0,0,0,0,0,0,0,0,0,0,0,0,0,0,0,0,0,0,0,0,0,0,0,0,0,0,0,0,0,0,0,0,0,0,0,0,0,0,0,0,0],"trees":[{"base_weights":[-1.3853489E-2,7.579443E-2,-9.242499E-1,2.4072568E-1,-6.653779E-1,-9.739927E-1,-0E0,3.7966707E-1,-6.1730486E-1,-7.1018475E-1,4.0101543E-2,-1.013378E0,-0E0,4.1010037E-1,-6.543978E-1,-6.8434966E-1,2.6359743E-2,-7.4684215E-1,-0E0,-1.0300457E0,-0E0,3.7543103E-1,4.4533572E-1,-2.0067613E-1,-0E0,-7.0183253E-1,-0E0,-7.7809125E-1,-0E0,-1.0430994E0,-0E0,3.3933368E-1,4.3850458E-1,-7.1760017E-1,-0E0,-8.0177057E-1,-0E0,-1.0529951E0,-0E0,9.112604E-2,4.4001842E-1,-2.1867399E-1,-0E0,-2.4431454E-1,-0E0,-3.183129E-1,-0E0],"categories":[],"categories_nodes":[],"categories_segments":[],"categories_sizes":[],"default_left":[0,0,0,0,0,0,0,0,0,0,0,0,0,0,0,0,0,0,0,0,0,0,0,0,0,0,0,0,0,0,0,0,0,0,0,0,0,0,0,0,0,0,0,0,0,0,0],"id":0,"left_children":[1,3,5,7,9,11,-1,13,15,17,-1,19,-1,21,23,25,-1,27,-1,29,-1,31,-1,-1,-1,33,-1,35,-1,37,-1,39,-1,41,-1,43,-1,45,-1,-1,-1,-1,-1,-1,-1,-1,-1],"loss_changes":[1.7699507E3,2.2607554E3,1.5276807E2,1.8461453E3,1.8607886E2,1.2991968E2,0E0,4.2700537E2,1.6477051E2,1.5580908E2,0E0,5.5673584E1,0E0,2.5224585E2,5.734604E0,4.4516296E1,0E0,1.37625E2,0E0,4.3924805E1,0E0,2.828335E2,0E0,0E0,0E0,4.093268E1,0E0,1.0668994E2,0E0,3.373535E1,0E0,2.9466174E2,0E0,2.9418213E1,0E0,5.725537E1,0E0,2.7580322E1,0E0,0E0,0E0,0E0,0E0,0E0,0E0,0E0,0E0],"parents":[2147483647,0,0,1,1,2,2,3,3,4,4,5,5,7,7,8,8,9,9,11,11,13,13,14,14,15,15,17,17,19,19,21,21,25,25,27,27,29,29,31,31,33,33,35,35,37,37],"right_children":[2,4,6,8,10,12,-1,14,16,18,-1,20,-1,22,24,26,-1,28,-1,30,-1,32,-1,-1,-1,34,-1,36,-1,38,-1,40,-1,42,-1,44,-1,46,-1,-1,-1,-1,-1,-1,-1,-1,-1],"split_conditions":[1E0,1E0,1E0,1E0,1E0,1E0,-0E0,1E0,1E0,1E0,4.0101543E-2,1E0,-0E0,1E0,1E0,1E0,2.6359743E-2,1E0,-0E0,1E0,-0E0,1E0,4.4533572E-1,-2.0067613E-1,-0E0,1E0,-0E0,1E0,-0E0,1E0,-0E0,1E0,4.3850458E-1,1E0,-0E0,1E0,-0E0,1E0,-0E0,9.112604E-2,4.4001842E-1,-2.1867399E-1,-0E0,-2.4431454E-1,-0E0,-3.183129E-1,-0E0],"split_indices":[5,0,175,15,91,91,0,418,36,36,0,82,0,68,36,91,0,122,0,29,0,82,0,0,0,29,0,152,0,36,0,91,0,82,0,82,0,44,0,0,0,0,0,0,0,0,0],"split_type":[0,0,0,0,0,0,0,0,0,0,0,0,0,0,0,0,0,0,0,0,0,0,0,0,0,0,0,0,0,0,0,0,0,0,0,0,0,0,0,0,0,0,0,0,0,0,0],"sum_hessian":[2.0461135E4,1.8610379E4,1.850756E3,1.5388464E4,3.2219148E3,1.8176251E3,3.3130817E1,1.3392161E4,1.996303E3,3.1798728E3,4.2041862E1,1.7979751E3,1.9650002E1,1.3161845E4,2.303163E2,1.9551752E3,4.112791E1,3.1451426E3,3.4730236E1,1.789521E3,8.45407E0,1.2971286E4,1.9055931E2,2.2894536E2,1.3709303E0,1.9444362E3,1.0738955E1,3.1170386E3,2.810407E1,1.7828949E3,6.626163E0,1.2770216E4,2.0106978E2,1.9350681E3,9.368024E0,3.095789E3,2.124942E1,1.7780966E3,4.798256E0,1.2588567E4,1.8164827E2,1.9277565E3,7.3116283E0,3.0839077E3,1.1881396E1,1.7742123E3,3.8843026E0],"tree_param":{"num_deleted":"0","num_feature":"1253","num_nodes":"47","size_leaf_vector":"1"}},{"base_weights":[-0E0,-9.0753675E-2,1.0532472E0,-1.1390862E-1,3.8031724E-1,1.0700216E0,-0E0,5.4206237E-2,-2.3881812E-1,3.2169962E-1,-0E0,9.998554E-2,-1.5618435E-1,-2.600377E-1,1.8278797E-1,1.1556275E-1,-9.506072E-3,-1.934182E-1,-5.120028E-1,1.3022862E-1,-0E0,-2.0931931E-1,7.110925E-2,-5.336287E-1,-0E0,4.290707E-2,-0E0,-6.7083254E-2,4.2843033E-2,-1.6617218E-1,-0E0],"categories":[],"categories_nodes":[],"categories_segments":[],"categories_sizes":[],"default_left":[0,0,0,0,0,0,0,0,0,0,0,0,0,0,0,0,0,0,0,0,0,0,0,0,0,0,0,0,0,0,0],"id":1,"left_children":[1,3,5,7,-1,9,-1,11,13,-1,-1,15,-1,17,-1,19,-1,21,23,25,-1,27,-1,29,-1,-1,-1,-1,-1,-1,-1],"loss_changes":[1.9271252E3,4.9419452E2,4.5363647E1,4.1384647E2,0E0,6.2612305E0,0E0,1.6682414E2,1.8116302E2,0E0,0E0,2.3961014E1,0E0,1.0487579E2,0E0,2.2965042E1,0E0,6.520383E1,4.0534424E1,2.3600502E1,0E0,5.7348053E1,0E0,3.9282715E1,0E0,0E0,0E0,0E0,0E0,0E0,0E0],"parents":[2147483647,0,0,1,1,2,2,3,3,5,5,7,7,8,8,11,11,13,13,15,15,17,17,18,18,19,19,21,21,23,23],"right_children":[2,4,6,8,-1,10,-1,12,14,-1,-1,16,-1,18,-1,20,-1,22,24,26,-1,28,-1,30,-1,-1,-1,-1,-1,-1,-1],"split_conditions":[1E0,1E0,1E0,1E0,3.8031724E-1,1E0,-0E0,1E0,1E0,3.2169962E-1,-0E0,1E0,-1.5618435E-1,1E0,1.8278797E-1,1E0,-9.506072E-3,1E0,1E0,1E0,-0E0,1E0,7.110925E-2,1E0,-0E0,4.290707E-2,-0E0,-6.7083254E-2,4.2843033E-2,-1.6617218E-1,-0E0],"split_indices":[33,8,583,4,0,623,0,10,69,0,0,623,0,15,0,56,0,95,687,2,0,593,0,138,0,0,0,0,0,0,0],"split_type":[0,0,0,0,0,0,0,0,0,0,0,0,0,0,0,0,0,0,0,0,0,0,0,0,0,0,0,0,0,0,0],"sum_hessian":[2.0316666E4,1.881994E4,1.4967264E3,1.8666992E4,1.529478E2,1.4866768E3,1.0049664E1,7.640167E3,1.1026825E4,1.4852921E3,1.3846426E0,7.3142275E3,3.259394E2,1.0940348E4,8.6477104E1,7.230531E3,8.369695E1,9.106291E3,1.8340563E3,7.026536E3,2.039946E2,9.055464E3,5.0827847E1,1.8228195E3,1.1236862E1,6.9622217E3,6.4314545E1,9.010258E3,4.5206333E1,1.8126427E3,1.0176781E1],"tree_param":{"num_deleted":"0","num_feature":"1253","num_nodes":"31","size_leaf_vector":"1"}},{"base_weights":[-0E0,-8.0858886E-1,7.705101E-1,-8.569721E-1,4.6961823E-1,-9.044312E-1,4.353827E-1,-9.4067883E-1,3.725418E-1,-9.793239E-1,3.2463202E-1,-1.0015254E0,2.1868092E-1,-3.0684122E-1,2.1027912E-1],"categories":[],"categories_nodes":[],"categories_segments":[],"categories_sizes":[],"default_left":[0,0,0,0,0,0,0,0,0,0,0,0,0,0,0],"id":2,"left_children":[1,3,-1,5,-1,7,-1,9,-1,11,-1,13,-1,-1,-1],"loss_changes":[4.2123273E4,1.8437197E3,0E0,1.7523086E3,0E0,1.2608564E3,0E0,1.2639424E3,0E0,6.6026465E2,0E0,6.355342E2,0E0,0E0,0E0],"parents":[2147483647,0,0,1,1,3,3,5,5,7,7,9,9,11,11],"right_children":[2,4,-1,6,-1,8,-1,10,-1,12,-1,14,-1,-1,-1],"split_conditions":[1E0,1E0,7.705101E-1,1E0,4.6961823E-1,1E0,4.353827E-1,1E0,3.725418E-1,1E0,3.2463202E-1,1E0,2.1868092E-1,-3.0684122E-1,2.1027912E-1],"split_indices":[1,81,0,36,0,6,0,69,0,29,0,138,0,0,0],"split_type":[0,0,0,0,0,0,0,0,0,0,0,0,0,0,0],"sum_hessian":[2.0149924E4,1.5400577E4,4.749346E3,1.519688E4,2.03697E2,1.4992759E4,2.0412111E2,1.4844811E4,1.4794884E2,1.4665646E4,1.7916316E2,1.4576118E4,8.952874E1,1.4493626E4,8.249186E1],"tree_param":{"num_deleted":"0","num_feature":"1253","num_nodes":"15","size_leaf_vector":"1"}},{"base_weights":[-0E0,-7.407342E-2,7.750625E-1,1.8677322E-2,-3.5484302E-1,1.1945354E-1,-4.6233523E-1,1.9145037E-1,-5.188509E-1,-4.8520008E-1,-0E0,2.6999193E-1,-3.045052E-1,-5.7111317E-1,-0E0,-4.9455544E-1,-0E0,2.964612E-1,-9.388696E-2,-3.2621092E-1,-0E0,-5.897848E-1,-0E0,-5.039805E-1,-0E0,9.563844E-2,-1.0296557E-1,-1.0457801E-1,-0E0,-1.8085971E-1,-0E0,-1.5369144E-1,-0E0],"categories":[],"categories_nodes":[],"categories_segments":[],"categories_sizes":[],"default_left":[0,0,0,0,0,0,0,0,0,0,0,0,0,0,0,0,0,0,0,0,0,0,0,0,0,0,0,0,0,0,0,0,0],"id":3,"left_children":[1,3,-1,5,-1,7,9,11,13,15,-1,17,19,21,-1,23,-1,25,-1,27,-1,29,-1,31,-1,-1,-1,-1,-1,-1,-1,-1,-1],"loss_changes":[3.8479248E3,2.0149708E3,0E0,7.9686206E2,0E0,6.3589E2,5.4214966E1,5.148315E2,6.487921E1,2.2898499E1,0E0,1.8555658E2,2.1785446E1,2.6550385E1,0E0,2.3385498E1,0E0,1.6915997E2,0E0,2.282341E1,0E0,1.8418365E1,0E0,2.1474365E1,0E0,0E0,0E0,0E0,0E0,0E0,0E0,0E0,0E0],"parents":[2147483647,0,0,1,1,3,3,5,5,6,6,7,7,8,8,9,9,11,11,12,12,13,13,15,15,17,17,19,19,21,21,23,23],"right_children":[2,4,-1,6,-1,8,10,12,14,16,-1,18,20,22,-1,24,-1,26,-1,28,-1,30,-1,32,-1,-1,-1,-1,-1,-1,-1,-1,-1],"split_conditions":[1E0,1E0,7.750625E-1,1E0,-3.5484302E-1,1E0,1E0,1E0,1E0,1E0,-0E0,1E0,1E0,1E0,-0E0,1E0,-0E0,1E0,-9.388696E-2,1E0,-0E0,1E0,-0E0,1E0,-0E0,9.563844E-2,-1.0296557E-1,-1.0457801E-1,-0E0,-1.8085971E-1,-0E0,-1.5369144E-1,-0E0],"split_indices":[3,14,0,0,0,5,122,15,175,51,0,10,62,62,0,438,0,418,0,8,0,138,0,138,0,0,0,0,0,0,0,0,0],"split_type":[0,0,0,0,0,0,0,0,0,0,0,0,0,0,0,0,0,0,0,0,0,0,0,0,0,0,0,0,0,0,0,0,0],"sum_hessian":[1.8801822E4,1.8340484E4,4.613363E2,1.6932158E4,1.4083274E3,1.4233235E4,2.6989229E3,1.2994236E4,1.2389987E3,2.6716335E3,2.72892E1,1.14311455E4,1.563091E3,1.2040615E3,3.493716E1,2.6613867E3,1.0246802E1,1.114575E4,2.8539587E2,1.5538583E3,9.232754E0,1.1991274E3,4.9340477E0,2.65114E3,1.0246802E1,1.0969264E4,1.7648602E2,1.5361151E3,1.7743126E1,1.1940396E3,5.087944E0,2.6442822E3,6.8577857E0],"tree_param":{"num_deleted":"0","num_feature":"1253","num_nodes":"33","size_leaf_vector":"1"}},{"base_weights":[-6.6701327E-3,-6.2866026E-1,5.038011E-1,-6.9471365E-1,5.26153E-1,-7.4960536E-1,4.229414E-1,-7.866344E-1,2.5306046E-1,-8.2175404E-1,2.6791778E-1,-8.432799E-1,1.6711074E-1,-2.581574E-1,1.401621E-1],"categories":[],"categories_nodes":[],"categories_segments":[],"categories_sizes":[],"default_left":[0,0,0,0,0,0,0,0,0,0,0,0,0,0,0],"id":4,"left_children":[1,3,-1,5,-1,7,-1,9,-1,11,-1,13,-1,-1,-1],"loss_changes":[1.9437188E4,2.1649473E3,0E0,1.5876011E3,0E0,8.3763574E2,0E0,8.3222217E2,0E0,4.5635938E2,0E0,3.6751758E2,0E0,0E0,0E0],"parents":[2147483647,0,0,1,1,3,3,5,5,7,7,9,9,11,11],"right_children":[2,4,-1,6,-1,8,-1,10,-1,12,-1,14,-1,-1,-1],"split_conditions":[1E0,1E0,5.038011E-1,1E0,5.26153E-1,1E0,4.229414E-1,1E0,2.5306046E-1,1E0,2.6791778E-1,1E0,1.6711074E-1,-2.581574E-1,1.401621E-1],"split_indices":[1,91,0,82,0,69,0,6,0,138,0,152,0,0,0],"split_type":[0,0,0,0,0,0,0,0,0,0,0,0,0,0,0],"sum_hessian":[1.843443E4,1.3555612E4,4.8788184E3,1.32997E4,2.5591216E2,1.3070679E4,2.2902188E2,1.2884597E4,1.8608115E2,1.2729064E4,1.5553224E2,1.2643047E4,8.601843E1,1.2588043E4,5.5003605E1],"tree_param":{"num_deleted":"0","num_feature":"1253","num_nodes":"15","size_leaf_vector":"1"}},{"base_weights":[5.010953E-3,-6.261603E-2,5.6118107E-1,-1.0158888E-1,3.8694426E-1,-1.3532554E-1,3.8245663E-1,-1.6872701E-1,3.2498634E-1,-1.9004796E-1,2.2420643E-1,-2.0439202E-1,1.5177262E-1,-6.6032976E-2,1.1911071E-1],"categories":[],"categories_nodes":[],"categories_segments":[],"categories_sizes":[],"default_left":[0,0,0,0,0,0,0,0,0,0,0,0,0,0,0],"id":5,"left_children":[1,3,-1,5,-1,7,-1,9,-1,11,-1,13,-1,-1,-1],"loss_changes":[2.268518E3,7.336139E2,0E0,6.2969434E2,0E0,5.54869E2,0E0,2.5505386E2,0E0,1.3018683E2,0E0,1.3222205E2,0E0,0E0,0E0],"parents":[2147483647,0,0,1,1,3,3,5,5,7,7,9,9,11,11],"right_children":[2,4,-1,6,-1,8,-1,10,-1,12,-1,14,-1,-1,-1],"split_conditions":[1E0,1E0,5.6118107E-1,1E0,3.8694426E-1,1E0,3.8245663E-1,1E0,3.2498634E-1,1E0,2.2420643E-1,1E0,1.5177262E-1,-6.6032976E-2,1.1911071E-1],"split_indices":[3,91,0,36,0,82,0,6,0,138,0,68,0,0,0],"split_type":[0,0,0,0,0,0,0,0,0,0,0,0,0,0,0],"sum_hessian":[1.6354771E4,1.5824192E4,5.305793E2,1.5542729E4,2.81464E2,1.5329814E4,2.1291429E2,1.508457E4,2.452445E2,1.49256045E4,1.5896497E2,1.4834183E4,9.1421974E1,1.4680199E4,1.5398375E2],"tree_param":{"num_deleted":"0","num_feature":"1253","num_nodes":"15","size_leaf_vector":"1"}},{"base_weights":[2.34913E-2,-1.430239E-2,3.290621E-1,-4.9548984E-2,4.2407858E-1,-7.084866E-2,2.2457068E-1,-8.45314E-2,2.1247509E-1,-9.930508E-2,1.3539246E-1,-1.1260549E-1,1.01342835E-1,-3.6957484E-2,1.01773955E-1],"categories":[],"categories_nodes":[],"categories_segments":[],"categories_sizes":[],"default_left":[0,0,0,0,0,0,0,0,0,0,0,0,0,0,0],"id":6,"left_children":[1,3,-1,5,-1,7,-1,9,-1,11,-1,13,-1,-1,-1],"loss_changes":[7.664415E2,6.5794495E2,0E0,1.9987384E2,0E0,1.06124214E2,0E0,8.9584496E1,0E0,6.879674E1,0E0,5.387065E1,0E0,0E0,0E0],"parents":[2147483647,0,0,1,1,3,3,5,5,7,7,9,9,11,11],"right_children":[2,4,-1,6,-1,8,-1,10,-1,12,-1,14,-1,-1,-1],"split_conditions":[1E0,1E0,3.290621E-1,1E0,4.2407858E-1,1E0,2.2457068E-1,1E0,2.1247509E-1,1E0,1.3539246E-1,1E0,1.01342835E-1,-3.6957484E-2,1.01773955E-1],"split_indices":[27,81,0,69,0,52,0,264,0,68,0,152,0,0,0],"split_type":[0,0,0,0,0,0,0,0,0,0,0,0,0,0,0],"sum_hessian":[1.6085921E4,1.5544118E4,5.418028E2,1.5332217E4,2.1190144E2,1.5144469E4,1.8774843E2,1.5096838E4,4.7631012E1,1.4952667E4,1.4417097E2,1.480519E4,1.4747658E2,1.4753586E4,5.1603745E1],"tree_param":{"num_deleted":"0","num_feature":"1253","num_nodes":"15","size_leaf_vector":"1"}},{"base_weights":[3.6809564E-2,-4.7323304E-1,4.2561874E-1,-5.849328E-1,4.170737E-1,-6.4231604E-1,3.069857E-1,-6.976751E-1,3.14272E-1,-7.345529E-1,1.7379193E-1,-7.698202E-1,1.8570273E-1,-2.3847874E-1,2.1711393E-1],"categories":[],"categories_nodes":[],"categories_segments":[],"categories_sizes":[],"default_left":[0,0,0,0,0,0,0,0,0,0,0,0,0,0,0],"id":7,"left_children":[1,3,-1,5,-1,7,-1,9,-1,11,-1,13,-1,-1,-1],"loss_changes":[1.1418263E4,2.4334807E3,0E0,1.0563557E3,0E0,1.0563691E3,0E0,5.599297E2,0E0,5.6290967E2,0E0,4.519746E2,0E0,0E0,0E0],"parents":[2147483647,0,0,1,1,3,3,5,5,7,7,9,9,11,11],"right_children":[2,4,-1,6,-1,8,-1,10,-1,12,-1,14,-1,-1,-1],"split_conditions":[1E0,1E0,4.2561874E-1,1E0,4.170737E-1,1E0,3.069857E-1,1E0,3.14272E-1,1E0,1.7379193E-1,1E0,1.8570273E-1,-2.3847874E-1,2.1711393E-1],"split_indices":[1,3,0,91,0,36,0,69,0,6,0,62,0,0,0],"split_type":[0,0,0,0,0,0,0,0,0,0,0,0,0,0,0],"sum_hessian":[1.5870444E4,1.1587201E4,4.283243E3,1.1047284E4,5.3991724E2,1.0784713E4,2.625713E2,1.0556773E4,2.2793878E2,1.0377859E4,1.7891428E2,1.0228363E4,1.494961E2,1.0171101E4,5.7263172E1],"tree_param":{"num_deleted":"0","num_feature":"1253","num_nodes":"15","size_leaf_vector":"1"}},{"base_weights":[5.5601515E-2,1.2457463E-1,-8.311265E-1,8.834127E-2,3.7278217E-1,-2.5165585E-1,-0E0,5.2034713E-2,3.2301557E-1,2.4047168E-2,2.450745E-1,7.6993324E-2,-2.1573138E-1,1.11239314E-1,-1.985699E-1,-2.5274453E-1,-0E0,4.3721814E-2,-2.2632675E-2,-7.1738824E-2,-0E0,-8.157341E-2,-0E0],"categories":[],"categories_nodes":[],"categories_segments":[],"categories_sizes":[],"default_left":[0,0,0,0,0,0,0,0,0,0,0,0,0,0,0,0,0,0,0,0,0,0,0],"id":8,"left_children":[1,3,5,7,-1,-1,-1,9,-1,11,-1,13,15,17,19,21,-1,-1,-1,-1,-1,-1,-1],"loss_changes":[7.897732E2,3.8610764E2,1.0609619E1,3.4339465E2,0E0,0E0,0E0,1.840476E2,0E0,1.4522792E2,0E0,9.325886E1,3.232966E1,7.119315E1,1.4392567E1,1.8783684E1,0E0,0E0,0E0,0E0,0E0,0E0,0E0],"parents":[2147483647,0,0,1,1,2,2,3,3,7,7,9,9,11,11,12,12,13,13,14,14,15,15],"right_children":[2,4,6,8,-1,-1,-1,10,-1,12,-1,14,16,18,20,22,-1,-1,-1,-1,-1,-1,-1],"split_conditions":[1E0,1E0,1E0,1E0,3.7278217E-1,-2.5165585E-1,-0E0,1E0,3.2301557E-1,1E0,2.450745E-1,1E0,1E0,1E0,1E0,1E0,-0E0,4.3721814E-2,-2.2632675E-2,-7.1738824E-2,-0E0,-8.157341E-2,-0E0],"split_indices":[14,81,81,82,0,0,0,36,0,0,0,5,152,15,172,52,0,0,0,0,0,0,0],"split_type":[0,0,0,0,0,0,0,0,0,0,0,0,0,0,0,0,0,0,0,0,0,0,0],"sum_hessian":[1.3799104E4,1.2987603E4,8.1150037E2,1.2771061E4,2.1654204E2,8.098643E2,1.6360564E0,1.2517684E4,2.5337775E2,1.2301447E4,2.1623589E2,1.0473669E4,1.8277782E3,9.69174E3,7.819289E2,1.8105967E3,1.7181591E1,8.650644E3,1.0410964E3,7.5982086E2,2.2107994E1,1.804791E3,5.805658E0],"tree_param":{"num_deleted":"0","num_feature":"1253","num_nodes":"23","size_leaf_vector":"1"}},{"base_weights":[4.1306645E-2,-2.4795632E-5,3.3302212E-1,-3.5765678E-2,2.3166262E-1,-6.723185E-2,2.501807E-1,-8.776465E-2,2.5794512E-1,-1.0560844E-1,2.3440313E-1,-1.253579E-1,1.5537103E-1,-4.3773353E-2,1.4028633E-1],"categories":[],"categories_nodes":[],"categories_segments":[],"categories_sizes":[],"default_left":[0,0,0,0,0,0,0,0,0,0,0,0,0,0,0],"id":9,"left_children":[1,3,-1,5,-1,7,-1,9,-1,11,-1,13,-1,-1,-1],"loss_changes":[7.129858E2,2.9151126E2,0E0,2.783637E2,0E0,1.6877702E2,0E0,1.3377203E2,0E0,1.1994934E2,0E0,1.2403224E2,0E0,0E0,0E0],"parents":[2147483647,0,0,1,1,3,3,5,5,7,7,9,9,11,11],"right_children":[2,4,-1,6,-1,8,-1,10,-1,12,-1,14,-1,-1,-1],"split_conditions":[1E0,1E0,3.3302212E-1,1E0,2.3166262E-1,1E0,2.501807E-1,1E0,2.5794512E-1,1E0,2.3440313E-1,1E0,1.5537103E-1,-4.3773353E-2,1.4028633E-1],"split_indices":[3,27,0,82,0,29,0,52,0,6,0,69,0,0,0],"split_type":[0,0,0,0,0,0,0,0,0,0,0,0,0,0,0],"sum_hessian":[1.3527527E4,1.303006E4,4.9746753E2,1.2668589E4,3.614707E2,1.2426254E4,2.4233574E2,1.2351097E4,7.515699E1,1.2301443E4,4.965357E1,1.2156663E4,1.4477997E2,1.1985274E4,1.7138887E2],"tree_param":{"num_deleted":"0","num_feature":"1253","num_nodes":"15","size_leaf_vector":"1"}},{"base_weights":[5.741651E-2,1.11321814E-1,-2.1935111E-1,6.620771E-2,2.7881625E-1,3.6172204E-2,2.0521146E-1,9.08213E-3,2.1577038E-1,-1.0915926E-3,2.037359E-1,-2.1106722E-2,2.1371138E-1,-1.1775399E-2,1.9191583E-1],"categories":[],"categories_nodes":[],"categories_segments":[],"categories_sizes":[],"default_left":[0,0,0,0,0,0,0,0,0,0,0,0,0,0,0],"id":10,"left_children":[1,3,-1,5,-1,7,-1,9,-1,11,-1,13,-1,-1,-1],"loss_changes":[5.1356067E2,3.629729E2,0E0,1.5299545E2,0E0,1.4765384E2,0E0,1.4788501E2,0E0,9.680073E1,0E0,7.955645E1,0E0,0E0,0E0],"parents":[2147483647,0,0,1,1,3,3,5,5,7,7,9,9,11,11],"right_children":[2,4,-1,6,-1,8,-1,10,-1,12,-1,14,-1,-1,-1],"split_conditions":[1E0,1E0,-2.1935111E-1,1E0,2.7881625E-1,1E0,2.0521146E-1,1E0,2.1577038E-1,1E0,2.037359E-1,1E0,2.1371138E-1,-1.1775399E-2,1.9191583E-1],"split_indices":[14,3,0,27,0,36,0,82,0,29,0,62,0,0,0],"split_type":[0,0,0,0,0,0,0,0,0,0,0,0,0,0,0],"sum_hessian":[1.3247898E4,1.259934E4,6.4855853E2,1.215913E4,4.4021033E2,1.1850725E4,3.0840533E2,1.1636936E4,2.1378864E2,1.1414217E4,2.2271959E2,1.1333476E4,8.0740524E1,1.1269432E4,6.404397E1],"tree_param":{"num_deleted":"0","num_feature":"1253","num_nodes":"15","size_leaf_vector":"1"}},{"base_weights":[5.3113982E-2,-3.851433E-1,3.7686732E-1,-4.544613E-1,2.3907936E-1,-5.127687E-1,3.0713958E-1,-5.744212E-1,2.6516923E-1,-6.2075436E-1,1.7218508E-1,-6.5750897E-1,1.2160299E-1,-2.081815E-1,1.3485701E-1],"categories":[],"categories_nodes":[],"categories_segments":[],"categories_sizes":[],"default_left":[0,0,0,0,0,0,0,0,0,0,0,0,0,0,0],"id":11,"left_children":[1,3,-1,5,-1,7,-1,9,-1,11,-1,13,-1,-1,-1],"loss_changes":[7.011996E3,7.8654175E2,0E0,7.933618E2,0E0,7.9232764E2,0E0,5.04344E2,0E0,3.729912E2,0E0,3.924795E2,0E0,0E0,0E0],"parents":[2147483647,0,0,1,1,3,3,5,5,7,7,9,9,11,11],"right_children":[2,4,-1,6,-1,8,-1,10,-1,12,-1,14,-1,-1,-1],"split_conditions":[1E0,1E0,3.7686732E-1,1E0,2.3907936E-1,1E0,3.0713958E-1,1E0,2.6516923E-1,1E0,1.7218508E-1,1E0,1.2160299E-1,-2.081815E-1,1.3485701E-1],"split_indices":[1,3,0,81,0,91,0,82,0,69,0,6,0,0,0],"split_type":[0,0,0,0,0,0,0,0,0,0,0,0,0,0,0],"sum_hessian":[1.2941669E4,9.475058E3,3.4666113E3,9.088264E3,3.8679376E2,8.871311E3,2.1695331E2,8.621218E3,2.5009268E2,8.414734E3,2.0648283E2,8.25251E3,1.6222531E2,8.1131743E3,1.3933493E2],"tree_param":{"num_deleted":"0","num_feature":"1253","num_nodes":"15","size_leaf_vector":"1"}},{"base_weights":[6.932041E-2,3.8622547E-2,2.485549E-1,2.3624694E-3,2.0730563E-1,-8.4188924E-4,2.1911488E-1,-2.2416003E-2,2.0610851E-1,-4.2516347E-2,2.2280385E-1,-6.010737E-2,1.7094544E-1,-2.3777038E-2,1.15728445E-1],"categories":[],"categories_nodes":[],"categories_segments":[],"categories_sizes":[],"default_left":[0,0,0,0,0,0,0,0,0,0,0,0,0,0,0],"id":12,"left_children":[1,3,-1,5,-1,7,-1,9,-1,11,-1,13,-1,-1,-1],"loss_changes":[1.7337337E2,1.928327E2,0E0,9.809645E1,0E0,9.338255E1,0E0,9.5857574E1,0E0,6.589735E1,0E0,6.1944828E1,0E0,0E0,0E0],"parents":[2147483647,0,0,1,1,3,3,5,5,7,7,9,9,11,11],"right_children":[2,4,-1,6,-1,8,-1,10,-1,12,-1,14,-1,-1,-1],"split_conditions":[1E0,1E0,2.485549E-1,1E0,2.0730563E-1,1E0,2.1911488E-1,1E0,2.0610851E-1,1E0,2.2280385E-1,1E0,1.7094544E-1,-2.3777038E-2,1.15728445E-1],"split_indices":[81,3,0,29,0,138,0,52,0,152,0,6,0,0,0],"split_type":[0,0,0,0,0,0,0,0,0,0,0,0,0,0,0],"sum_hessian":[1.1197121E4,1.0989566E4,2.0755428E2,1.0651217E4,3.3834976E2,1.0567231E4,8.398575E1,1.0480638E4,8.659344E1,1.0431725E4,4.8913322E1,1.0386827E4,4.489735E1,1.0252982E4,1.338452E2],"tree_param":{"num_deleted":"0","num_feature":"1253","num_nodes":"15","size_leaf_vector":"1"}},{"base_weights":[7.876827E-2,1.19564705E-1,-5.521297E-1,8.962135E-2,2.2015466E-1,-1.7045864E-1,-0E0,6.0543865E-2,2.1305534E-1,2.846423E-2,1.7986628E-1,4.093241E-3,1.4656305E-1,-0E0,1.8234281E-1,-5.4651797E-3,1.8788455E-1],"categories":[],"categories_nodes":[],"categories_segments":[],"categories_sizes":[],"default_left":[0,0,0,0,0,0,0,0,0,0,0,0,0,0,0,0,0],"id":13,"left_children":[1,3,5,7,-1,-1,-1,9,-1,11,-1,13,-1,15,-1,-1,-1],"loss_changes":[2.5047974E2,1.0806186E2,8.906387E0,1.0774676E2,0E0,0E0,0E0,1.1315759E2,0E0,6.241358E1,0E0,6.8992485E1,0E0,6.692768E1,0E0,0E0,0E0],"parents":[2147483647,0,0,1,1,2,2,3,3,7,7,9,9,11,11,13,13],"right_children":[2,4,6,8,-1,-1,-1,10,-1,12,-1,14,-1,16,-1,-1,-1],"split_conditions":[1E0,1E0,1E0,1E0,2.2015466E-1,-1.7045864E-1,-0E0,1E0,2.1305534E-1,1E0,1.7986628E-1,1E0,1.4656305E-1,1E0,1.8234281E-1,-5.4651797E-3,1.8788455E-1],"split_indices":[14,91,91,36,0,0,0,3,0,82,0,29,0,62,0,0,0],"split_type":[0,0,0,0,0,0,0,0,0,0,0,0,0,0,0,0,0],"sum_hessian":[1.1055894E4,1.0609399E4,4.4649426E2,1.0380768E4,2.2863104E2,4.4361395E2,2.8802965E0,1.0174906E4,2.0586143E2,9.877826E3,2.970807E2,9.683141E3,1.9468486E2,9.595944E3,8.719644E1,9.533461E3,6.2483273E1],"tree_param":{"num_deleted":"0","num_feature":"1253","num_nodes":"17","size_leaf_vector":"1"}},{"base_weights":[7.3871024E-2,-3.0190608E-1,3.4348485E-1,-3.490349E-1,1.9692002E-1,-3.9776087E-1,1.56045E-1,-4.3632534E-1,1.2511122E-1,-4.6938893E-1,1.7170674E-1,-5.016914E-1,1.0118509E-1,-1.568687E-1,1.0253748E-1],"categories":[],"categories_nodes":[],"categories_segments":[],"categories_sizes":[],"default_left":[0,0,0,0,0,0,0,0,0,0,0,0,0,0,0],"id":14,"left_children":[1,3,-1,5,-1,7,-1,9,-1,11,-1,13,-1,-1,-1],"loss_changes":[4.5717295E3,3.62518E2,0E0,3.464348E2,0E0,2.6277954E2,0E0,2.6801392E2,0E0,2.2751868E2,0E0,1.6696802E2,0E0,0E0,0E0],"parents":[2147483647,0,0,1,1,3,3,5,5,7,7,9,9,11,11],"right_children":[2,4,-1,6,-1,8,-1,10,-1,12,-1,14,-1,-1,-1],"split_conditions":[1E0,1E0,3.4348485E-1,1E0,1.9692002E-1,1E0,1.56045E-1,1E0,1.2511122E-1,1E0,1.7170674E-1,1E0,1.0118509E-1,-1.568687E-1,1.0253748E-1],"split_indices":[1,91,0,3,0,82,0,138,0,6,0,349,0,0,0],"split_type":[0,0,0,0,0,0,0,0,0,0,0,0,0,0,0],"sum_hessian":[1.0963366E4,8.100009E3,2.8633577E3,7.8803857E3,2.1962303E2,7.6223687E3,2.5801743E2,7.439439E3,1.8292972E2,7.351082E3,8.835682E1,7.2235933E3,1.2748879E2,7.1991772E3,2.4416025E1],"tree_param":{"num_deleted":"0","num_feature":"1253","num_nodes":"15","size_leaf_vector":"1"}},{"base_weights":[8.743395E-2,6.1255056E-2,1.6710743E-1,3.881099E-2,1.8597057E-1,1.2852566E-2,1.3378908E-1,-0E0,1.7224446E-1,-6.4586024E-3,1.4630955E-1,-2.9123306E-2,1.09149955E-1,-1.5313297E-2,1.01511635E-1],"categories":[],"categories_nodes":[],"categories_segments":[],"categories_sizes":[],"default_left":[0,0,0,0,0,0,0,0,0,0,0,0,0,0,0],"id":15,"left_children":[1,3,-1,5,-1,7,-1,9,-1,11,-1,13,-1,-1,-1],"loss_changes":[5.428286E1,5.112784E1,0E0,5.3255253E1,0E0,4.7075832E1,0E0,4.533969E1,0E0,4.3676605E1,0E0,4.461346E1,0E0,0E0,0E0],"parents":[2147483647,0,0,1,1,3,3,5,5,7,7,9,9,11,11],"right_children":[2,4,-1,6,-1,8,-1,10,-1,12,-1,14,-1,-1,-1],"split_conditions":[1E0,1E0,1.6710743E-1,1E0,1.8597057E-1,1E0,1.3378908E-1,1E0,1.7224446E-1,1E0,1.4630955E-1,1E0,1.09149955E-1,-1.5313297E-2,1.01511635E-1],"split_indices":[91,29,0,3,0,152,0,138,0,82,0,27,0,0,0],"split_type":[0,0,0,0,0,0,0,0,0,0,0,0,0,0,0],"sum_hessian":[9.622552E3,9.423219E3,1.9933272E2,9.334163E3,8.905585E1,9.102583E3,2.3157957E2,9.055165E3,4.7418655E1,8.966132E3,8.903318E1,8.79029E3,1.75841E2,8.633525E3,1.5676527E2],"tree_param":{"num_deleted":"0","num_feature":"1253","num_nodes":"15","size_leaf_vector":"1"}},{"base_weights":[8.862519E-2,-2.1791388E-1,3.1850812E-1,-2.7309224E-1,2.4061792E-1,-3.1327364E-1,1.3947237E-1,-3.5568124E-1,1.1436737E-1,-3.8920373E-1,2.1007426E-1,-4.2418274E-1,1.9175942E-1,-1.3865487E-1,8.937414E-2],"categories":[],"categories_nodes":[],"categories_segments":[],"categories_sizes":[],"default_left":[0,0,0,0,0,0,0,0,0,0,0,0,0,0,0],"id":16,"left_children":[1,3,-1,5,-1,7,-1,9,-1,11,-1,13,-1,-1,-1],"loss_changes":[2.9722334E3,3.8031177E2,0E0,2.0996338E2,0E0,2.1488019E2,0E0,2.3371338E2,0E0,2.452215E2,0E0,2.1118738E2,0E0,0E0,0E0],"parents":[2147483647,0,0,1,1,3,3,5,5,7,7,9,9,11,11],"right_children":[2,4,-1,6,-1,8,-1,10,-1,12,-1,14,-1,-1,-1],"split_conditions":[1E0,1E0,3.1850812E-1,1E0,2.4061792E-1,1E0,1.3947237E-1,1E0,1.1436737E-1,1E0,2.1007426E-1,1E0,1.9175942E-1,-1.3865487E-1,8.937414E-2],"split_indices":[1,81,0,91,0,3,0,52,0,62,0,82,0,0,0],"split_type":[0,0,0,0,0,0,0,0,0,0,0,0,0,0,0],"sum_hessian":[9.504017E3,7.208128E3,2.2958892E3,7.000674E3,2.0745401E2,6.8222783E3,1.7839558E2,6.611349E3,2.1092906E2,6.5609053E3,5.0443993E1,6.49595E3,6.4955246E1,6.3369497E3,1.5900038E2],"tree_param":{"num_deleted":"0","num_feature":"1253","num_nodes":"15","size_leaf_vector":"1"}},{"base_weights":[1.0392782E-1,6.538683E-2,2.3189877E-1,9.7849905E-2,-3.5347757E-1,7.1074836E-2,1.4196609E-1,-1.2446356E-1,-0E0,4.7632292E-2,1.4047585E-1,2.196144E-2,1.1669074E-1,-0E0,1.08155556E-1,-0E0,1.11950584E-1],"categories":[],"categories_nodes":[],"categories_segments":[],"categories_sizes":[],"default_left":[0,0,0,0,0,0,0,0,0,0,0,0,0,0,0,0,0],"id":17,"left_children":[1,3,-1,5,7,9,-1,-1,-1,11,-1,13,-1,15,-1,-1,-1],"loss_changes":[1.3085434E2,9.086754E1,0E0,2.2716942E1,1.0589687E1,1.9210602E1,0E0,0E0,0E0,2.6008703E1,0E0,2.641758E1,0E0,1.7199831E1,0E0,0E0,0E0],"parents":[2147483647,0,0,1,1,3,3,4,4,5,5,9,9,11,11,13,13],"right_children":[2,4,-1,6,8,10,-1,-1,-1,12,-1,14,-1,16,-1,-1,-1],"split_conditions":[1E0,1E0,2.3189877E-1,1E0,1E0,1E0,1.4196609E-1,-1.2446356E-1,-0E0,1E0,1.4047585E-1,1E0,1.1669074E-1,1E0,1.08155556E-1,-0E0,1.11950584E-1],"split_indices":[36,14,0,69,13,138,0,0,0,91,0,6,0,349,0,0,0],"split_type":[0,0,0,0,0,0,0,0,0,0,0,0,0,0,0,0,0],"sum_hessian":[8.42177E3,8.20818E3,2.1358943E2,7.9104775E3,2.9770245E2,7.7434756E3,1.6700195E2,2.5021913E2,4.748333E1,7.655402E3,8.807398E1,7.4913975E3,1.6400438E2,7.3599736E3,1.3142354E2,7.3364604E3,2.3513369E1],"tree_param":{"num_deleted":"0","num_feature":"1253","num_nodes":"17","size_leaf_vector":"1"}},{"base_weights":[9.332271E-2,-1.4883734E-1,2.9584536E-1,-1.9977261E-1,1.9861238E-1,-2.3620486E-1,1.8037154E-1,-2.7071512E-1,1.9923131E-1,-3.133495E-1,1.3068496E-1,-3.5596132E-1,9.799773E-2,-1.1944522E-1,1.05833136E-1],"categories":[],"categories_nodes":[],"categories_segments":[],"categories_sizes":[],"default_left":[0,0,0,0,0,0,0,0,0,0,0,0,0,0,0],"id":18,"left_children":[1,3,-1,5,-1,7,-1,9,-1,11,-1,13,-1,-1,-1],"loss_changes":[1.9352343E3,2.4297351E2,0E0,1.6679468E2,0E0,1.7714722E2,0E0,1.9208163E2,0E0,1.8262134E2,0E0,1.9715833E2,0E0,0E0,0E0],"parents":[2147483647,0,0,1,1,3,3,5,5,7,7,9,9,11,11],"right_children":[2,4,-1,6,-1,8,-1,10,-1,12,-1,14,-1,-1,-1],"split_conditions":[1E0,1E0,2.9584536E-1,1E0,1.9861238E-1,1E0,1.8037154E-1,1E0,1.9923131E-1,1E0,1.3068496E-1,1E0,9.799773E-2,-1.1944522E-1,1.05833136E-1],"split_indices":[1,36,0,29,0,52,0,69,0,3,0,91,0,0,0],"split_type":[0,0,0,0,0,0,0,0,0,0,0,0,0,0,0],"sum_hessian":[8.395664E3,6.5818174E3,1.8138468E3,6.37976E3,2.0205765E2,6.289069E3,9.0690796E1,6.23122E3,5.7848644E1,6.0625E3,1.687203E2,5.8721606E3,1.9033946E2,5.716774E3,1.553867E2],"tree_param":{"num_deleted":"0","num_feature":"1253","num_nodes":"15","size_leaf_vector":"1"}},{"base_weights":[1.0775118E-1,6.879178E-2,2.128825E-1,3.4517124E-2,1.6602443E-1,5.8214786E-3,1.9265683E-1,-0E0,1.8497278E-1,-1.9305803E-2,1.0278102E-1,-4.6376355E-2,1.0710833E-1,-2.230845E-2,9.06295E-2],"categories":[],"categories_nodes":[],"categories_segments":[],"categories_sizes":[],"default_left":[0,0,0,0,0,0,0,0,0,0,0,0,0,0,0],"id":19,"left_children":[1,3,-1,5,-1,7,-1,9,-1,11,-1,13,-1,-1,-1],"loss_changes":[9.56036E1,6.237137E1,0E0,6.0715443E1,0E0,5.486596E1,0E0,3.2233994E1,0E0,4.144013E1,0E0,4.6023376E1,0E0,0E0,0E0],"parents":[2147483647,0,0,1,1,3,3,5,5,7,7,9,9,11,11],"right_children":[2,4,-1,6,-1,8,-1,10,-1,12,-1,14,-1,-1,-1],"split_conditions":[1E0,1E0,2.128825E-1,1E0,1.6602443E-1,1E0,1.9265683E-1,1E0,1.8497278E-1,1E0,1.0278102E-1,1E0,1.0710833E-1,-2.230845E-2,9.06295E-2],"split_indices":[81,36,0,62,0,152,0,69,0,6,0,82,0,0,0],"split_type":[0,0,0,0,0,0,0,0,0,0,0,0,0,0,0],"sum_hessian":[7.5051333E3,7.3095537E3,1.9557959E2,7.1195E3,1.9005367E2,7.052009E3,6.749127E1,7.00705E3,4.495867E1,6.854514E3,1.5253607E2,6.7242236E3,1.3029056E2,6.562806E3,1.6141707E2],"tree_param":{"num_deleted":"0","num_feature":"1253","num_nodes":"15","size_leaf_vector":"1"}},{"base_weights":[1.17444776E-1,1.470048E-1,-7.702064E-2,1.7083102E-1,-0E0,1.8037193E-1,-0E0,1.8809198E-1,-0E0,3.0347973E-1,3.1063315E-2,3.191671E-1,-0E0,9.884917E-2,-0E0],"categories":[],"categories_nodes":[],"categories_segments":[],"categories_sizes":[],"default_left":[0,0,0,0,0,0,0,0,0,0,0,0,0,0,0],"id":20,"left_children":[1,3,-1,5,-1,7,-1,9,-1,11,-1,13,-1,-1,-1],"loss_changes":[7.6161804E1,2.430072E1,0E0,1.8744385E1,0E0,1.6075897E1,0E0,1.5936432E1,0E0,1.6162796E1,0E0,9.922379E0,0E0,0E0,0E0],"parents":[2147483647,0,0,1,1,3,3,5,5,7,7,9,9,11,11],"right_children":[2,4,-1,6,-1,8,-1,10,-1,12,-1,14,-1,-1,-1],"split_conditions":[1E0,1E0,-7.702064E-2,1E0,-0E0,1E0,-0E0,1E0,-0E0,1E0,3.1063315E-2,1E0,-0E0,9.884917E-2,-0E0],"split_indices":[14,0,0,417,0,583,0,4,0,74,0,45,0,0,0],"split_type":[0,0,0,0,0,0,0,0,0,0,0,0,0,0,0],"sum_hessian":[7.4366084E3,7.1960854E3,2.4052286E2,6.135501E3,1.0605846E3,6.0694316E3,6.6069214E1,6.0277856E3,4.1646343E1,1.9393347E3,4.0884507E3,1.9024554E3,3.687931E1,1.8702578E3,3.2197655E1],"tree_param":{"num_deleted":"0","num_feature":"1253","num_nodes":"15","size_leaf_vector":"1"}},{"base_weights":[7.651483E-2,-1.1290268E-1,2.7570727E-1,-1.6020067E-1,1.7470843E-1,-1.9338176E-1,1.6391094E-1,-2.2724201E-1,1.2963367E-1,-2.6330853E-1,8.732508E-2,-2.866977E-1,4.2418733E-2,-9.207343E-2,2.8605696E-2],"categories":[],"categories_nodes":[],"categories_segments":[],"categories_sizes":[],"default_left":[0,0,0,0,0,0,0,0,0,0,0,0,0,0,0],"id":21,"left_children":[1,3,-1,5,-1,7,-1,9,-1,11,-1,13,-1,-1,-1],"loss_changes":[1.3012526E3,1.7046747E2,0E0,1.1600786E2,0E0,1.15198395E2,0E0,1.1433899E2,0E0,7.260336E1,0E0,6.78056E1,0E0,0E0,0E0],"parents":[2147483647,0,0,1,1,3,3,5,5,7,7,9,9,11,11],"right_children":[2,4,-1,6,-1,8,-1,10,-1,12,-1,14,-1,-1,-1],"split_conditions":[1E0,1E0,2.7570727E-1,1E0,1.7470843E-1,1E0,1.6391094E-1,1E0,1.2963367E-1,1E0,8.732508E-2,1E0,4.2418733E-2,-9.207343E-2,2.8605696E-2],"split_indices":[1,81,0,52,0,138,0,69,0,205,0,124,0,0,0],"split_type":[0,0,0,0,0,0,0,0,0,0,0,0,0,0,0],"sum_hessian":[7.483773E3,6.0838706E3,1.3999025E3,5.9030796E3,1.8079094E2,5.8428545E3,6.022529E1,5.754866E3,8.798814E1,5.606855E3,1.4801122E2,5.56168E3,4.5174667E1,5.549478E3,1.220226E1],"tree_param":{"num_deleted":"0","num_feature":"1253","num_nodes":"15","size_leaf_vector":"1"}},{"base_weights":[9.218602E-2,1.16939045E-1,-4.8663113E-2,1.2810993E-1,-0E0,1.358129E-1,-0E0,1.4262086E-1,-0E0,1.4683557E-1,-0E0,1.5054242E-1,-0E0,4.6218235E-2,-0E0],"categories":[],"categories_nodes":[],"categories_segments":[],"categories_sizes":[],"default_left":[0,0,0,0,0,0,0,0,0,0,0,0,0,0,0],"id":22,"left_children":[1,3,-1,5,-1,7,-1,9,-1,11,-1,13,-1,-1,-1],"loss_changes":[4.1342358E1,1.6637253E1,0E0,1.2422424E1,0E0,1.1720558E1,0E0,6.654846E0,0E0,6.4134827E0,0E0,6.241989E0,0E0,0E0,0E0],"parents":[2147483647,0,0,1,1,3,3,5,5,7,7,9,9,11,11],"right_children":[2,4,-1,6,-1,8,-1,10,-1,12,-1,14,-1,-1,-1],"split_conditions":[1E0,1E0,-4.8663113E-2,1E0,-0E0,1E0,-0E0,1E0,-0E0,1E0,-0E0,1E0,-0E0,4.6218235E-2,-0E0],"split_indices":[14,10,0,417,0,583,0,190,0,74,0,93,0,0,0],"split_type":[0,0,0,0,0,0,0,0,0,0,0,0,0,0,0],"sum_hessian":[6.883013E3,6.680148E3,2.0286526E2,6.5629907E3,1.1715731E2,6.502088E3,6.0902832E1,6.4630454E3,3.904264E1,6.4003433E3,6.2702034E1,6.3671577E3,3.3185265E1,6.338133E3,2.9024841E1],"tree_param":{"num_deleted":"0","num_feature":"1253","num_nodes":"15","size_leaf_vector":"1"}},{"base_weights":[5.3384133E-2,2.7557584E-2,1.6707844E-1,1.4857982E-3,8.879586E-2,-0E0,9.246574E-2,-1.8660111E-2,7.5113095E-2,-3.5341598E-2,2.3164645E-2,-5.1991057E-2,1.6386459E-2,-2.003944E-2,-0E0],"categories":[],"categories_nodes":[],"categories_segments":[],"categories_sizes":[],"default_left":[0,0,0,0,0,0,0,0,0,0,0,0,0,0,0],"id":23,"left_children":[1,3,-1,5,-1,7,-1,9,-1,11,-1,13,-1,-1,-1],"loss_changes":[3.1717676E1,1.92076E1,0E0,2.1078732E1,0E0,1.8258614E1,0E0,6.552752E0,0E0,9.804483E0,0E0,1.13894005E1,0E0,0E0,0E0],"parents":[2147483647,0,0,1,1,3,3,5,5,7,7,9,9,11,11],"right_children":[2,4,-1,6,-1,8,-1,10,-1,12,-1,14,-1,-1,-1],"split_conditions":[1E0,1E0,1.6707844E-1,1E0,8.879586E-2,1E0,9.246574E-2,1E0,7.5113095E-2,1E0,2.3164645E-2,1E0,1.6386459E-2,-2.003944E-2,-0E0],"split_indices":[152,3,0,6,0,82,0,124,0,205,0,90,0,0,0],"split_type":[0,0,0,0,0,0,0,0,0,0,0,0,0,0,0],"sum_hessian":[6.951318E3,6.9014126E3,4.990531E1,6.721648E3,1.7976443E2,6.599606E3,1.22042145E2,6.444699E3,1.5490666E2,6.431783E3,1.2915832E1,6.400938E3,3.0845367E1,6.390801E3,1.0137017E1],"tree_param":{"num_deleted":"0","num_feature":"1253","num_nodes":"15","size_leaf_vector":"1"}},{"base_weights":[7.080704E-2,-6.965422E-2,2.527827E-1,-9.964958E-2,1.3088877E-1,-1.2918313E-1,6.5717645E-2,-1.5920283E-1,6.0936864E-2,-9.937149E-3,-2.3372261E-1,-0E0,-3.2566126E-2,-2.4976571E-1,-0E0,-7.842772E-2,-0E0],"categories":[],"categories_nodes":[],"categories_segments":[],"categories_sizes":[],"default_left":[0,0,0,0,0,0,0,0,0,0,0,0,0,0,0,0,0],"id":24,"left_children":[1,3,-1,5,-1,7,-1,9,-1,11,13,-1,-1,15,-1,-1,-1],"loss_changes":[8.412211E2,6.020265E1,0E0,4.8779453E1,0E0,5.5620003E1,0E0,3.7159424E1,0E0,1.0460434E1,2.4947205E1,0E0,0E0,1.9106781E1,0E0,0E0,0E0],"parents":[2147483647,0,0,1,1,3,3,5,5,7,7,9,9,10,10,13,13],"right_children":[2,4,-1,6,-1,8,-1,10,-1,12,14,-1,-1,16,-1,-1,-1],"split_conditions":[1E0,1E0,2.527827E-1,1E0,1.3088877E-1,1E0,6.5717645E-2,1E0,6.0936864E-2,1E0,1E0,-0E0,-3.2566126E-2,1E0,-0E0,-7.842772E-2,-0E0],"split_indices":[1,52,0,82,0,69,0,4,0,0,249,0,0,224,0,0,0],"split_type":[0,0,0,0,0,0,0,0,0,0,0,0,0,0,0,0,0],"sum_hessian":[6.8926074E3,5.798702E3,1.0939053E3,5.7365615E3,6.214083E1,5.5916377E3,1.4492363E2,5.452125E3,1.395126E2,2.3001355E3,3.1519895E3,1.4923356E3,8.078E2,3.147544E3,4.4456315E0,3.1438835E3,3.6603887E0],"tree_param":{"num_deleted":"0","num_feature":"1253","num_nodes":"17","size_leaf_vector":"1"}},{"base_weights":[5.9870232E-2,-4.5725897E-2,2.3431168E-1,-9.131448E-2,1.5262581E-1,-1.3877855E-1,1.5561692E-1,-1.7911218E-1,1.5937506E-1,-2.1965897E-1,8.3238184E-2,-2.5550538E-1,1.2171088E-1,-8.787501E-2,5.835562E-2],"categories":[],"categories_nodes":[],"categories_segments":[],"categories_sizes":[],"default_left":[0,0,0,0,0,0,0,0,0,0,0,0,0,0,0],"id":25,"left_children":[1,3,-1,5,-1,7,-1,9,-1,11,-1,13,-1,-1,-1],"loss_changes":[5.810913E2,1.08158035E2,0E0,1.3022917E2,0E0,1.19985275E2,0E0,9.843553E1,0E0,1.10231125E2,0E0,1.00721954E2,0E0,0E0,0E0],"parents":[2147483647,0,0,1,1,3,3,5,5,7,7,9,9,11,11],"right_children":[2,4,-1,6,-1,8,-1,10,-1,12,-1,14,-1,-1,-1],"split_conditions":[1E0,1E0,2.3431168E-1,1E0,1.5262581E-1,1E0,1.5561692E-1,1E0,1.5937506E-1,1E0,8.3238184E-2,1E0,1.2171088E-1,-8.787501E-2,5.835562E-2],"split_indices":[1,36,0,81,0,29,0,3,0,52,0,69,0,0,0],"split_type":[0,0,0,0,0,0,0,0,0,0,0,0,0,0,0],"sum_hessian":[6.518139E3,5.6463726E3,8.717666E2,5.4612373E3,1.8513547E2,5.2907637E3,1.7047357E2,5.2002407E3,9.05229E1,5.024907E3,1.7533339E2,4.959664E3,6.52431E1,4.8163906E3,1.432737E2],"tree_param":{"num_deleted":"0","num_feature":"1253","num_nodes":"15","size_leaf_vector":"1"}},{"base_weights":[9.70585E-2,-0E0,2.1208982E-1,-1.2719064E-2,1.6808903E-1,-5.3536903E-2,1.23206265E-1,-8.606654E-2,1.1189761E-1,-1.2082483E-1,7.179618E-2,-1.5090494E-1,1.1404068E-1,-5.182934E-2,1.6495127E-2],"categories":[],"categories_nodes":[],"categories_segments":[],"categories_sizes":[],"default_left":[0,0,0,0,0,0,0,0,0,0,0,0,0,0,0],"id":26,"left_children":[1,3,-1,5,-1,7,-1,9,-1,11,-1,13,-1,-1,-1],"loss_changes":[3.4494836E2,5.2790894E1,0E0,5.8950127E1,0E0,4.6441032E1,0E0,4.88977E1,0E0,5.7644234E1,0E0,3.4981415E1,0E0,0E0,0E0],"parents":[2147483647,0,0,1,1,3,3,5,5,7,7,9,9,11,11],"right_children":[2,4,-1,6,-1,8,-1,10,-1,12,-1,14,-1,-1,-1],"split_conditions":[1E0,1E0,2.1208982E-1,1E0,1.6808903E-1,1E0,1.23206265E-1,1E0,1.1189761E-1,1E0,7.179618E-2,1E0,1.1404068E-1,-5.182934E-2,1.6495127E-2],"split_indices":[1,62,0,36,0,52,0,82,0,349,0,124,0,0,0],"split_type":[0,0,0,0,0,0,0,0,0,0,0,0,0,0,0],"sum_hessian":[6.0212314E3,5.315686E3,7.0554553E2,5.250283E3,6.540296E1,5.0837295E3,1.6655357E2,5.0154907E3,6.8238846E1,4.865902E3,1.4958861E2,4.844508E3,2.1394377E1,4.833152E3,1.1355862E1],"tree_param":{"num_deleted":"0","num_feature":"1253","num_nodes":"15","size_leaf_vector":"1"}},{"base_weights":[1.1043167E-1,7.3790275E-2,1.4263497E-1,4.1334532E-2,1.5573108E-1,7.734493E-3,1.4172296E-1,-0E0,1.1637308E-1,-2.1944549E-2,9.921323E-2,-5.0281126E-2,5.382749E-2,-2.1497581E-2,2.5212929E-2],"categories":[],"categories_nodes":[],"categories_segments":[],"categories_sizes":[],"default_left":[0,0,0,0,0,0,0,0,0,0,0,0,0,0,0],"id":27,"left_children":[1,3,-1,5,-1,7,-1,9,-1,11,-1,13,-1,-1,-1],"loss_changes":[1.992604E1,2.4070349E1,0E0,3.3062687E1,0E0,3.9695362E1,0E0,2.1030876E1,0E0,1.8219929E1,0E0,1.4175225E1,0E0,0E0,0E0],"parents":[2147483647,0,0,1,1,3,3,5,5,7,7,9,9,11,11],"right_children":[2,4,-1,6,-1,8,-1,10,-1,12,-1,14,-1,-1,-1],"split_conditions":[1E0,1E0,1.4263497E-1,1E0,1.5573108E-1,1E0,1.4172296E-1,1E0,1.1637308E-1,1E0,9.921323E-2,1E0,5.382749E-2,-2.1497581E-2,2.5212929E-2],"split_indices":[81,62,0,29,0,36,0,52,0,82,0,124,0,0,0],"split_type":[0,0,0,0,0,0,0,0,0,0,0,0,0,0,0],"sum_hessian":[5.758671E3,5.5915522E3,1.6711884E2,5.522872E3,6.868001E1,5.433158E3,8.9713684E1,5.267157E3,1.6600127E2,5.198194E3,6.896345E1,5.058057E3,1.4013637E2,5.0460986E3,1.195845E1],"tree_param":{"num_deleted":"0","num_feature":"1253","num_nodes":"15","size_leaf_vector":"1"}},{"base_weights":[1.1215915E-1,8.1439175E-2,1.636572E-1,1.0170822E-1,-0E0,1.09468944E-1,-0E0,3.4524713E-2,-0E0],"categories":[],"categories_nodes":[],"categories_segments":[],"categories_sizes":[],"default_left":[0,0,0,0,0,0,0,0,0],"id":28,"left_children":[1,3,-1,5,-1,7,-1,-1,-1],"loss_changes":[9.585068E0,1.290834E1,0E0,7.471966E0,0E0,5.8208237E0,0E0,0E0,0E0],"parents":[2147483647,0,0,1,1,3,3,5,5],"right_children":[2,4,-1,6,-1,8,-1,-1,-1],"split_conditions":[1E0,1E0,1.636572E-1,1E0,-0E0,1E0,-0E0,3.4524713E-2,-0E0],"split_indices":[152,0,0,417,0,875,0,0,0],"split_type":[0,0,0,0,0,0,0,0,0],"sum_hessian":[5.663115E3,5.614654E3,4.8461636E1,4.811747E3,8.0290674E2,4.763527E3,4.8219902E1,4.740145E3,2.3382069E1],"tree_param":{"num_deleted":"0","num_feature":"1253","num_nodes":"9","size_leaf_vector":"1"}},{"base_weights":[9.115403E-2,5.9878122E-2,1.3914572E-1,2.5825853E-2,1.1837091E-1,-0E0,1.2155452E-1,-0E0,8.668707E-2,-2.6820386E-2,5.48101E-2,-5.3589117E-2,6.694735E-2,-2.4306012E-2,4.032955E-2],"categories":[],"categories_nodes":[],"categories_segments":[],"categories_sizes":[],"default_left":[0,0,0,0,0,0,0,0,0,0,0,0,0,0,0],"id":29,"left_children":[1,3,-1,5,-1,7,-1,9,-1,11,-1,13,-1,-1,-1],"loss_changes":[1.2858185E1,2.2420168E1,0E0,2.4236221E1,0E0,2.0968742E1,0E0,1.1667021E1,0E0,1.9267494E1,0E0,2.241446E1,0E0,0E0,0E0],"parents":[2147483647,0,0,1,1,3,3,5,5,7,7,9,9,11,11],"right_children":[2,4,-1,6,-1,8,-1,10,-1,12,-1,14,-1,-1,-1],"split_conditions":[1E0,1E0,1.3914572E-1,1E0,1.1837091E-1,1E0,1.2155452E-1,1E0,8.668707E-2,1E0,5.48101E-2,1E0,6.694735E-2,-2.4306012E-2,4.032955E-2],"split_indices":[138,81,0,62,0,36,0,69,0,52,0,82,0,0,0],"split_type":[0,0,0,0,0,0,0,0,0,0,0,0,0,0,0],"sum_hessian":[5.7346304E3,5.645257E3,8.9373146E1,5.4928965E3,1.523607E2,5.4225474E3,7.0348785E1,5.271413E3,1.511344E2,5.1346943E3,1.3671877E2,5.0703384E3,6.43561E1,4.9385967E3,1.3174149E2],"tree_param":{"num_deleted":"0","num_feature":"1253","num_nodes":"15","size_leaf_vector":"1"}},{"base_weights":[9.311586E-2,1.14897296E-1,-8.593782E-3,1.2509586E-1,-0E0,1.3074829E-1,-0E0,4.0898867E-2,-0E0],"categories":[],"categories_nodes":[],"categories_segments":[],"categories_sizes":[],"default_left":[0,0,0,0,0,0,0,0,0],"id":30,"left_children":[1,3,-1,5,-1,7,-1,-1,-1],"loss_changes":[2.4214066E1,1.215361E1,0E0,7.379936E0,0E0,7.6585617E0,0E0,0E0,0E0],"parents":[2147483647,0,0,1,1,3,3,5,5],"right_children":[2,4,-1,6,-1,8,-1,-1,-1],"split_conditions":[1E0,1E0,-8.593782E-3,1E0,-0E0,1E0,-0E0,4.0898867E-2,-0E0],"split_indices":[14,10,0,587,0,416,0,0,0],"split_type":[0,0,0,0,0,0,0,0,0],"sum_hessian":[5.6537505E3,5.4972793E3,1.5647124E2,5.3984746E3,9.880487E1,5.365036E3,3.3438602E1,5.338791E3,2.6245092E1],"tree_param":{"num_deleted":"0","num_feature":"1253","num_nodes":"9","size_leaf_vector":"1"}},{"base_weights":[4.9458273E-2,1.4001006E-2,1.2275843E-1,-0E0,1.320679E-1,-1.018142E-2,1.08966835E-1,-4.2758457E-2,9.280778E-2,-7.25634E-2,6.337048E-2,-9.65324E-2,4.1424874E-2,-3.502587E-2,9.598569E-3],"categories":[],"categories_nodes":[],"categories_segments":[],"categories_sizes":[],"default_left":[0,0,0,0,0,0,0,0,0,0,0,0,0,0,0],"id":31,"left_children":[1,3,-1,5,-1,7,-1,9,-1,11,-1,13,-1,-1,-1],"loss_changes":[3.1386303E1,2.8222696E1,0E0,2.5543839E1,0E0,3.2091385E1,0E0,2.8380741E1,0E0,2.3635843E1,0E0,2.2337505E1,0E0,0E0,0E0],"parents":[2147483647,0,0,1,1,3,3,5,5,7,7,9,9,11,11],"right_children":[2,4,-1,6,-1,8,-1,10,-1,12,-1,14,-1,-1,-1],"split_conditions":[1E0,1E0,1.2275843E-1,1E0,1.320679E-1,1E0,1.08966835E-1,1E0,9.280778E-2,1E0,6.337048E-2,1E0,4.1424874E-2,-3.502587E-2,9.598569E-3],"split_indices":[91,152,0,29,0,81,0,36,0,205,0,124,0,0,0],"split_type":[0,0,0,0,0,0,0,0,0,0,0,0,0,0,0],"sum_hessian":[5.7233794E3,5.557482E3,1.6589748E2,5.506131E3,5.135111E1,5.41685E3,8.928072E1,5.278298E3,1.3855225E2,5.140255E3,1.3804297E2,5.0899795E3,5.0275288E1,5.0782524E3,1.1727233E1],"tree_param":{"num_deleted":"0","num_feature":"1253","num_nodes":"15","size_leaf_vector":"1"}},{"base_weights":[7.590785E-2,9.667579E-2,-4.8921527E-3,1.036636E-1,-0E0,1.0920127E-1,-0E0,3.5376288E-2,-0E0],"categories":[],"categories_nodes":[],"categories_segments":[],"categories_sizes":[],"default_left":[0,0,0,0,0,0,0,0,0],"id":32,"left_children":[1,3,-1,5,-1,7,-1,-1,-1],"loss_changes":[1.9135838E1,7.256714E0,0E0,6.128231E0,0E0,5.5869446E0,0E0,0E0,0E0],"parents":[2147483647,0,0,1,1,3,3,5,5],"right_children":[2,4,-1,6,-1,8,-1,-1,-1],"split_conditions":[1E0,1E0,-4.8921527E-3,1E0,-0E0,1E0,-0E0,3.5376288E-2,-0E0],"split_indices":[14,418,0,583,0,33,0,0,0],"split_type":[0,0,0,0,0,0,0,0,0],"sum_hessian":[5.6131396E3,5.4625024E3,1.506371E2,5.4131436E3,4.935889E1,5.3820728E3,3.107097E1,5.0030854E3,3.7898697E2],"tree_param":{"num_deleted":"0","num_feature":"1253","num_nodes":"9","size_leaf_vector":"1"}},{"base_weights":[4.3288365E-2,-1.4113869E-2,1.8933243E-1,-4.602166E-2,1.0647702E-1,-7.850125E-2,9.418919E-2,-1.0646502E-1,9.455736E-2,-1.3819067E-1,5.3767312E-2,-1.6516997E-1,4.721215E-2,-5.6181047E-2,1.3912787E-2],"categories":[],"categories_nodes":[],"categories_segments":[],"categories_sizes":[],"default_left":[0,0,0,0,0,0,0,0,0,0,0,0,0,0,0],"id":33,"left_children":[1,3,-1,5,-1,7,-1,9,-1,11,-1,13,-1,-1,-1],"loss_changes":[2.575737E2,3.206078E1,0E0,3.890963E1,0E0,3.798075E1,0E0,4.3860817E1,0E0,4.2360832E1,0E0,3.7578735E1,0E0,0E0,0E0],"parents":[2147483647,0,0,1,1,3,3,5,5,7,7,9,9,11,11],"right_children":[2,4,-1,6,-1,8,-1,10,-1,12,-1,14,-1,-1,-1],"split_conditions":[1E0,1E0,1.8933243E-1,1E0,1.0647702E-1,1E0,9.418919E-2,1E0,9.455736E-2,1E0,5.3767312E-2,1E0,4.721215E-2,-5.6181047E-2,1.3912787E-2],"split_indices":[1,62,0,29,0,349,0,36,0,205,0,90,0,0,0],"split_type":[0,0,0,0,0,0,0,0,0,0,0,0,0,0,0],"sum_hessian":[5.678631E3,5.1073613E3,5.7126935E2,5.030885E3,7.6476974E1,4.941061E3,8.98235E1,4.9186543E3,2.2406857E1,4.7885483E3,1.3010603E2,4.7384707E3,5.0077553E1,4.728655E3,9.81602E0],"tree_param":{"num_deleted":"0","num_feature":"1253","num_nodes":"15","size_leaf_vector":"1"}},{"base_weights":[6.6546485E-2,8.6205624E-2,-0E0,9.715103E-2,-0E0,1.0388892E-1,-0E0,3.2884564E-2,-0E0],"categories":[],"categories_nodes":[],"categories_segments":[],"categories_sizes":[],"default_left":[0,0,0,0,0,0,0,0,0],"id":34,"left_children":[1,3,-1,5,-1,7,-1,-1,-1],"loss_changes":[1.5591541E1,9.961945E0,0E0,6.681881E0,0E0,6.0898056E0,0E0,0E0,0E0],"parents":[2147483647,0,0,1,1,3,3,5,5],"right_children":[2,4,-1,6,-1,8,-1,-1,-1],"split_conditions":[1E0,1E0,-0E0,1E0,-0E0,1E0,-0E0,3.2884564E-2,-0E0],"split_indices":[14,10,0,418,0,583,0,0,0],"split_type":[0,0,0,0,0,0,0,0,0],"sum_hessian":[5.4406914E3,5.299801E3,1.4089073E2,5.2070947E3,9.270583E1,5.1601167E3,4.6978153E1,5.131724E3,2.8392426E1],"tree_param":{"num_deleted":"0","num_feature":"1253","num_nodes":"9","size_leaf_vector":"1"}},{"base_weights":[3.284327E-2,-0E0,1.130431E-1,-0E0,1.0825307E-1,-2.0587819E-2,6.721591E-2,-4.6195135E-2,5.9415653E-2,-7.089195E-2,2.714948E-2,-9.108709E-2,5.9434995E-3,-3.315169E-2,-0E0],"categories":[],"categories_nodes":[],"categories_segments":[],"categories_sizes":[],"default_left":[0,0,0,0,0,0,0,0,0,0,0,0,0,0,0],"id":35,"left_children":[1,3,-1,5,-1,7,-1,9,-1,11,-1,13,-1,-1,-1],"loss_changes":[2.7064001E1,2.4157806E1,0E0,1.0867148E1,0E0,1.5459451E1,0E0,1.6383804E1,0E0,1.6681454E1,0E0,1.9864105E1,0E0,0E0,0E0],"parents":[2147483647,0,0,1,1,3,3,5,5,7,7,9,9,11,11],"right_children":[2,4,-1,6,-1,8,-1,10,-1,12,-1,14,-1,-1,-1],"split_conditions":[1E0,1E0,1.130431E-1,1E0,1.0825307E-1,1E0,6.721591E-2,1E0,5.9415653E-2,1E0,2.714948E-2,1E0,5.9434995E-3,-3.315169E-2,-0E0],"split_indices":[6,138,0,62,0,52,0,69,0,124,0,90,0,0,0],"split_type":[0,0,0,0,0,0,0,0,0,0,0,0,0,0,0],"sum_hessian":[5.500459E3,5.3673013E3,1.3315752E2,5.281769E3,8.553235E1,5.210127E3,7.164242E1,5.1439116E3,6.6215195E1,5.01715E3,1.2676146E2,5.004883E3,1.2267075E1,4.995084E3,9.798928E0],"tree_param":{"num_deleted":"0","num_feature":"1253","num_nodes":"15","size_leaf_vector":"1"}},{"base_weights":[5.9083834E-2,-0E0,1.684282E-1,-1.8704884E-2,1.0927946E-1,-5.647912E-2,8.1780985E-2,-9.3533605E-2,8.1040695E-2,-1.2948893E-1,8.881603E-2,-1.6325139E-1,4.1931264E-2,-5.9506584E-2,3.6371112E-2],"categories":[],"categories_nodes":[],"categories_segments":[],"categories_sizes":[],"default_left":[0,0,0,0,0,0,0,0,0,0,0,0,0,0,0],"id":36,"left_children":[1,3,-1,5,-1,7,-1,9,-1,11,-1,13,-1,-1,-1],"loss_changes":[1.6328406E2,3.558842E1,0E0,3.378376E1,0E0,4.198089E1,0E0,5.1439266E1,0E0,4.5580246E1,0E0,5.38462E1,0E0,0E0,0E0],"parents":[2147483647,0,0,1,1,3,3,5,5,7,7,9,9,11,11],"right_children":[2,4,-1,6,-1,8,-1,10,-1,12,-1,14,-1,-1,-1],"split_conditions":[1E0,1E0,1.684282E-1,1E0,1.0927946E-1,1E0,8.1780985E-2,1E0,8.1040695E-2,1E0,8.881603E-2,1E0,4.1931264E-2,-5.9506584E-2,3.6371112E-2],"split_indices":[1,91,0,3,0,81,0,138,0,36,0,69,0,0,0],"split_type":[0,0,0,0,0,0,0,0,0,0,0,0,0,0,0],"sum_hessian":[5.428864E3,4.9495986E3,4.792652E2,4.7942944E3,1.5530432E2,4.619208E3,1.7508652E2,4.4876206E3,1.3158731E2,4.404564E3,8.3056526E1,4.278804E3,1.2575986E2,4.148672E3,1.3013242E2],"tree_param":{"num_deleted":"0","num_feature":"1253","num_nodes":"15","size_leaf_vector":"1"}},{"base_weights":[8.342138E-2,3.064437E-2,-0E0],"categories":[],"categories_nodes":[],"categories_segments":[],"categories_sizes":[],"default_left":[0,0,0],"id":37,"left_children":[1,-1,-1],"loss_changes":[1.6876713E1,0E0,0E0],"parents":[2147483647,0,0],"right_children":[2,-1,-1],"split_conditions":[1E0,3.064437E-2,-0E0],"split_indices":[14,0,0],"split_type":[0,0,0],"sum_hessian":[5.1451157E3,5.015694E3,1.2942212E2],"tree_param":{"num_deleted":"0","num_feature":"1253","num_nodes":"3","size_leaf_vector":"1"}},{"base_weights":[4.9261704E-2,-0E0,1.4241743E-1,-6.9926856E-3,9.284719E-2,-3.586289E-2,9.2254415E-2,-6.418639E-2,5.693708E-2,-9.424161E-2,3.9039373E-2,-1.23089485E-1,2.298904E-2,-4.2891704E-2,-0E0],"categories":[],"categories_nodes":[],"categories_segments":[],"categories_sizes":[],"default_left":[0,0,0,0,0,0,0,0,0,0,0,0,0,0,0],"id":38,"left_children":[1,3,-1,5,-1,7,-1,9,-1,11,-1,13,-1,-1,-1],"loss_changes":[9.904645E1,1.8451008E1,0E0,1.761429E1,0E0,1.9250387E1,0E0,2.5210854E1,0E0,2.8227062E1,0E0,2.3499817E1,0E0,0E0,0E0],"parents":[2147483647,0,0,1,1,3,3,5,5,7,7,9,9,11,11],"right_children":[2,4,-1,6,-1,8,-1,10,-1,12,-1,14,-1,-1,-1],"split_conditions":[1E0,1E0,1.4241743E-1,1E0,9.284719E-2,1E0,9.2254415E-2,1E0,5.693708E-2,1E0,3.9039373E-2,1E0,2.298904E-2,-4.2891704E-2,-0E0],"split_indices":[1,29,0,349,0,52,0,82,0,69,0,249,0,0,0],"split_type":[0,0,0,0,0,0,0,0,0,0,0,0,0,0,0],"sum_hessian":[5.1969683E3,4.800434E3,3.9653394E2,4.7102593E3,9.017488E1,4.686607E3,2.365236E1,4.6212686E3,6.5338425E1,4.492529E3,1.2873955E2,4.368246E3,1.24282745E2,4.3615195E3,6.7269735E0],"tree_param":{"num_deleted":"0","num_feature":"1253","num_nodes":"15","size_leaf_vector":"1"}},{"base_weights":[9.038165E-2,9.957341E-2,-0E0,1.6907786E-1,3.869903E-3,2.4363747E-1,-0E0,2.6004767E-1,-0E0,2.759887E-1,-0E0,8.728028E-2,-0E0],"categories":[],"categories_nodes":[],"categories_segments":[],"categories_sizes":[],"default_left":[0,0,0,0,0,0,0,0,0,0,0,0,0],"id":39,"left_children":[1,3,-1,5,-1,7,-1,9,-1,11,-1,-1,-1],"loss_changes":[8.094883E0,1.2003777E1,0E0,2.3326431E1,0E0,1.0433922E1,0E0,1.01884E1,0E0,9.921318E0,0E0,0E0,0E0],"parents":[2147483647,0,0,1,1,3,3,5,5,7,7,9,9],"right_children":[2,4,-1,6,-1,8,-1,10,-1,12,-1,-1,-1],"split_conditions":[1E0,1E0,-0E0,1E0,3.869903E-3,1E0,-0E0,1E0,-0E0,1E0,-0E0,8.728028E-2,-0E0],"split_indices":[10,4,0,0,0,583,0,74,0,93,0,0,0],"split_type":[0,0,0,0,0,0,0,0,0,0,0,0,0],"sum_hessian":[5.0379224E3,4.949566E3,8.835651E1,2.0537886E3,2.8957773E3,1.3302322E3,7.235563E2,1.3097104E3,2.0521713E1,1.285324E3,2.4386557E1,1.263863E3,2.1460865E1],"tree_param":{"num_deleted":"0","num_feature":"1253","num_nodes":"13","size_leaf_vector":"1"}},{"base_weights":[5.1853493E-2,-0E0,1.2078516E-1,-0E0,1.0823727E-1,-3.3670064E-2,1.2744671E-1,-7.43288E-2,9.589502E-2,-1.1173432E-1,7.322197E-2,-1.4177366E-1,4.2056475E-2,-5.2280605E-2,2.5253689E-2],"categories":[],"categories_nodes":[],"categories_segments":[],"categories_sizes":[],"default_left":[0,0,0,0,0,0,0,0,0,0,0,0,0,0,0],"id":40,"left_children":[1,3,-1,5,-1,7,-1,9,-1,11,-1,13,-1,-1,-1],"loss_changes":[5.725786E1,3.0255207E1,0E0,3.3050484E1,0E0,4.483548E1,0E0,4.3291306E1,0E0,3.5381573E1,0E0,4.2255867E1,0E0,0E0,0E0],"parents":[2147483647,0,0,1,1,3,3,5,5,7,7,9,9,11,11],"right_children":[2,4,-1,6,-1,8,-1,10,-1,12,-1,14,-1,-1,-1],"split_conditions":[1E0,1E0,1.2078516E-1,1E0,1.0823727E-1,1E0,1.2744671E-1,1E0,9.589502E-2,1E0,7.322197E-2,1E0,4.2056475E-2,-5.2280605E-2,2.5253689E-2],"split_indices":[1,6,0,152,0,91,0,81,0,52,0,82,0,0,0],"split_type":[0,0,0,0,0,0,0,0,0,0,0,0,0,0,0],"sum_hessian":[5.0889165E3,4.749623E3,3.3929355E2,4.617195E3,1.3242831E2,4.563357E3,5.3837994E1,4.4170513E3,1.4630528E2,4.291828E3,1.2522322E2,4.2283135E3,6.351479E1,4.1036045E3,1.24708984E2],"tree_param":{"num_deleted":"0","num_feature":"1253","num_nodes":"15","size_leaf_vector":"1"}},{"base_weights":[8.2566254E-2,9.1358356E-2,-0E0,2.920522E-2,-0E0],"categories":[],"categories_nodes":[],"categories_segments":[],"categories_sizes":[],"default_left":[0,0,0,0,0],"id":41,"left_children":[1,3,-1,-1,-1],"loss_changes":[6.9405174E0,5.1658554E0,0E0,0E0,0E0],"parents":[2147483647,0,0,1,1],"right_children":[2,4,-1,-1,-1],"split_conditions":[1E0,1E0,-0E0,2.920522E-2,-0E0],"split_indices":[10,418,0,0,0],"split_type":[0,0,0,0,0],"sum_hessian":[4.901121E3,4.816412E3,8.470901E1,4.7748706E3,4.1541794E1],"tree_param":{"num_deleted":"0","num_feature":"1253","num_nodes":"5","size_leaf_vector":"1"}},{"base_weights":[5.809771E-2,2.7949467E-2,1.2559305E-1,-0E0,8.675021E-2,-0E0,7.0398636E-2,-3.1297848E-2,7.510608E-2,-6.533115E-2,8.399657E-2,-9.83895E-2,7.4432164E-2,-3.9993368E-2,5.5173937E-2],"categories":[],"categories_nodes":[],"categories_segments":[],"categories_sizes":[],"default_left":[0,0,0,0,0,0,0,0,0,0,0,0,0,0,0],"id":42,"left_children":[1,3,-1,5,-1,7,-1,9,-1,11,-1,13,-1,-1,-1],"loss_changes":[9.267921E0,1.4702111E1,0E0,1.4666592E1,0E0,1.9159443E1,0E0,2.9287317E1,0E0,3.444497E1,0E0,4.137261E1,0E0,0E0,0E0],"parents":[2147483647,0,0,1,1,3,3,5,5,7,7,9,9,11,11],"right_children":[2,4,-1,6,-1,8,-1,10,-1,12,-1,14,-1,-1,-1],"split_conditions":[1E0,1E0,1.2559305E-1,1E0,8.675021E-2,1E0,7.0398636E-2,1E0,7.510608E-2,1E0,8.399657E-2,1E0,7.4432164E-2,-3.9993368E-2,5.5173937E-2],"split_indices":[349,6,0,3,0,91,0,138,0,62,0,81,0,0,0],"split_type":[0,0,0,0,0,0,0,0,0,0,0,0,0,0,0],"sum_hessian":[4.9688325E3,4.9408003E3,2.8032265E1,4.817883E3,1.2291733E2,4.6515386E3,1.6634424E2,4.5180264E3,1.335123E2,4.43356E3,8.446624E1,4.3612324E3,7.232758E1,4.2433267E3,1.17905846E2],"tree_param":{"num_deleted":"0","num_feature":"1253","num_nodes":"15","size_leaf_vector":"1"}},{"base_weights":[8.246963E-2,9.139451E-2,-0E0,2.9182788E-2,-0E0],"categories":[],"categories_nodes":[],"categories_segments":[],"categories_sizes":[],"default_left":[0,0,0,0,0],"id":43,"left_children":[1,3,-1,-1,-1],"loss_changes":[6.9621735E0,5.0025673E0,0E0,0E0,0E0],"parents":[2147483647,0,0,1,1],"right_children":[2,4,-1,-1,-1],"split_conditions":[1E0,1E0,-0E0,2.9182788E-2,-0E0],"split_indices":[10,418,0,0,0],"split_type":[0,0,0,0,0],"sum_hessian":[4.827786E3,4.745857E3,8.19291E1,4.7062627E3,3.959447E1],"tree_param":{"num_deleted":"0","num_feature":"1253","num_nodes":"5","size_leaf_vector":"1"}},{"base_weights":[4.4066984E-2,1.4007648E-2,9.872197E-2,-0E0,7.5204805E-2,-4.047418E-3,7.180852E-2,-3.6094442E-2,5.7158705E-2,-6.9171205E-2,5.9402887E-2,-9.898203E-2,4.917104E-2,-3.9024137E-2,2.8169801E-2],"categories":[],"categories_nodes":[],"categories_segments":[],"categories_sizes":[],"default_left":[0,0,0,0,0,0,0,0,0,0,0,0,0,0,0],"id":44,"left_children":[1,3,-1,5,-1,7,-1,9,-1,11,-1,13,-1,-1,-1],"loss_changes":[7.9354944E0,9.956213E0,0E0,1.080192E1,0E0,1.4987907E1,0E0,2.4266426E1,0E0,2.6376904E1,0E0,3.141146E1,0E0,0E0,0E0],"parents":[2147483647,0,0,1,1,3,3,5,5,7,7,9,9,11,11],"right_children":[2,4,-1,6,-1,8,-1,10,-1,12,-1,14,-1,-1,-1],"split_conditions":[1E0,1E0,9.872197E-2,1E0,7.5204805E-2,1E0,7.180852E-2,1E0,5.7158705E-2,1E0,5.9402887E-2,1E0,4.917104E-2,-3.9024137E-2,2.8169801E-2],"split_indices":[152,62,0,29,0,3,0,91,0,52,0,69,0,0,0],"split_type":[0,0,0,0,0,0,0,0,0,0,0,0,0,0,0],"sum_hessian":[4.884714E3,4.8309795E3,5.373444E1,4.7571504E3,7.382919E1,4.6699795E3,8.717097E1,4.520786E3,1.491935E2,4.3971255E3,1.2366033E2,4.3299E3,6.72258E1,4.203223E3,1.2667643E2],"tree_param":{"num_deleted":"0","num_feature":"1253","num_nodes":"15","size_leaf_vector":"1"}},{"base_weights":[7.726712E-2,2.9019699E-2,1.060804E-1,-0E0,1.0433526E-1,-0E0,8.7029055E-2,-2.2483997E-2,6.266071E-2,-5.58328E-2,4.7768302E-2,-9.053965E-2,4.7629338E-2,-3.4846075E-2,1.2595362E-2],"categories":[],"categories_nodes":[],"categories_segments":[],"categories_sizes":[],"default_left":[0,0,0,0,0,0,0,0,0,0,0,0,0,0,0],"id":45,"left_children":[1,3,-1,5,-1,7,-1,9,-1,11,-1,13,-1,-1,-1],"loss_changes":[2.5746199E1,1.5384223E1,0E0,1.078012E1,0E0,1.0367458E1,0E0,1.718909E1,0E0,2.6294289E1,0E0,2.191035E1,0E0,0E0,0E0],"parents":[2147483647,0,0,1,1,3,3,5,5,7,7,9,9,11,11],"right_children":[2,4,-1,6,-1,8,-1,10,-1,12,-1,14,-1,-1,-1],"split_conditions":[1E0,1E0,1.060804E-1,1E0,1.0433526E-1,1E0,8.7029055E-2,1E0,6.266071E-2,1E0,4.7768302E-2,1E0,4.7629338E-2,-3.4846075E-2,1.2595362E-2],"split_indices":[1,152,0,349,0,29,0,3,0,36,0,90,0,0,0],"split_type":[0,0,0,0,0,0,0,0,0,0,0,0,0,0,0],"sum_hessian":[4.7779204E3,4.469872E3,3.0804868E2,4.4108633E3,5.900865E1,4.3827666E3,2.8096596E1,4.2960645E3,8.670212E1,4.1534033E3,1.4266093E2,4.026066E3,1.2733763E2,4.0166672E3,9.398645E0],"tree_param":{"num_deleted":"0","num_feature":"1253","num_nodes":"15","size_leaf_vector":"1"}},{"base_weights":[9.363108E-2,1.10862374E-1,-0E0,1.19163886E-1,-0E0,3.7300237E-2,-0E0],"categories":[],"categories_nodes":[],"categories_segments":[],"categories_sizes":[],"default_left":[0,0,0,0,0,0,0],"id":46,"left_children":[1,3,-1,5,-1,-1,-1],"loss_changes":[1.539838E1,7.8066025E0,0E0,5.2130585E0,0E0,0E0,0E0],"parents":[2147483647,0,0,1,1,3,3],"right_children":[2,4,-1,6,-1,-1,-1],"split_conditions":[1E0,1E0,-0E0,1E0,-0E0,3.7300237E-2,-0E0],"split_indices":[14,10,0,417,0,0,0],"split_type":[0,0,0,0,0,0,0],"sum_hessian":[4.664542E3,4.551416E3,1.1312628E2,4.4756714E3,7.574469E1,4.4402583E3,3.5413136E1],"tree_param":{"num_deleted":"0","num_feature":"1253","num_nodes":"7","size_leaf_vector":"1"}},{"base_weights":[5.51778E-2,2.1086672E-2,-0E0],"categories":[],"categories_nodes":[],"categories_segments":[],"categories_sizes":[],"default_left":[0,0,0],"id":47,"left_children":[1,-1,-1],"loss_changes":[8.61591E0,0E0,0E0],"parents":[2147483647,0,0],"right_children":[2,-1,-1],"split_conditions":[1E0,2.1086672E-2,-0E0],"split_indices":[14,0,0],"split_type":[0,0,0],"sum_hessian":[4.7393354E3,4.626153E3,1.1318262E2],"tree_param":{"num_deleted":"0","num_feature":"1253","num_nodes":"3","size_leaf_vector":"1"}},{"base_weights":[3.757217E-2,1.6008452E-2,-0E0],"categories":[],"categories_nodes":[],"categories_segments":[],"categories_sizes":[],"default_left":[0,0,0],"id":48,"left_children":[1,-1,-1],"loss_changes":[6.6708045E0,0E0,0E0],"parents":[2147483647,0,0],"right_children":[2,-1,-1],"split_conditions":[1E0,1.6008452E-2,-0E0],"split_indices":[14,0,0],"split_type":[0,0,0],"sum_hessian":[4.7679834E3,4.656108E3,1.1187554E2],"tree_param":{"num_deleted":"0","num_feature":"1253","num_nodes":"3","size_leaf_vector":"1"}},{"base_weights":[2.5256177E-2,-0E0,8.3045974E-2,-6.506737E-3,7.381521E-2,-3.9242286E-2,8.446802E-2,-7.270046E-2,7.09199E-2,-1.0633946E-1,4.7888882E-2,-1.3746452E-1,6.656715E-2,-5.112589E-2,4.634924E-2],"categories":[],"categories_nodes":[],"categories_segments":[],"categories_sizes":[],"default_left":[0,0,0,0,0,0,0,0,0,0,0,0,0,0,0],"id":49,"left_children":[1,3,-1,5,-1,7,-1,9,-1,11,-1,13,-1,-1,-1],"loss_changes":[2.4484043E1,1.3360906E1,0E0,1.9543259E1,0E0,2.6505617E1,0E0,3.059671E1,0E0,3.8145855E1,0E0,4.494969E1,0E0,0E0,0E0],"parents":[2147483647,0,0,1,1,3,3,5,5,7,7,9,9,11,11],"right_children":[2,4,-1,6,-1,8,-1,10,-1,12,-1,14,-1,-1,-1],"split_conditions":[1E0,1E0,8.3045974E-2,1E0,7.381521E-2,1E0,8.446802E-2,1E0,7.09199E-2,1E0,4.7888882E-2,1E0,6.656715E-2,-5.112589E-2,4.634924E-2],"split_indices":[1,6,0,152,0,138,0,91,0,349,0,62,0,0,0],"split_type":[0,0,0,0,0,0,0,0,0,0,0,0,0,0,0],"sum_hessian":[4.8027744E3,4.54245E3,2.6032443E2,4.4249224E3,1.1752772E2,4.362673E3,6.224956E1,4.2796157E3,8.305702E1,4.1616963E3,1.1791943E2,4.132598E3,2.9097963E1,4.0586223E3,7.397588E1],"tree_param":{"num_deleted":"0","num_feature":"1253","num_nodes":"15","size_leaf_vector":"1"}},{"base_weights":[6.435576E-2,2.3443783E-2,-0E0],"categories":[],"categories_nodes":[],"categories_segments":[],"categories_sizes":[],"default_left":[0,0,0],"id":50,"left_children":[1,-1,-1],"loss_changes":[8.679415E0,0E0,0E0],"parents":[2147483647,0,0],"right_children":[2,-1,-1],"split_conditions":[1E0,2.3443783E-2,-0E0],"split_indices":[14,0,0],"split_type":[0,0,0],"sum_hessian":[4.657484E3,4.54783E3,1.0965369E2],"tree_param":{"num_deleted":"0","num_feature":"1253","num_nodes":"3","size_leaf_vector":"1"}},{"base_weights":[2.692949E-2,-0E0,7.2803356E-2,-0E0,5.7251588E-2,-1.8137347E-2,5.1488455E-2,-4.8077226E-2,4.3455467E-2,-7.8855954E-2,3.9125703E-2,-1.08731106E-1,3.9192736E-2,-4.2087503E-2,2.1976337E-2],"categories":[],"categories_nodes":[],"categories_segments":[],"categories_sizes":[],"default_left":[0,0,0,0,0,0,0,0,0,0,0,0,0,0,0],"id":51,"left_children":[1,3,-1,5,-1,7,-1,9,-1,11,-1,13,-1,-1,-1],"loss_changes":[6.0762396E0,7.667032E0,0E0,6.9620714E0,0E0,1.3157276E1,0E0,2.018829E1,0E0,2.6237617E1,0E0,3.213592E1,0E0,0E0,0E0],"parents":[2147483647,0,0,1,1,3,3,5,5,7,7,9,9,11,11],"right_children":[2,4,-1,6,-1,8,-1,10,-1,12,-1,14,-1,-1,-1],"split_conditions":[1E0,1E0,7.2803356E-2,1E0,5.7251588E-2,1E0,5.1488455E-2,1E0,4.3455467E-2,1E0,3.9125703E-2,1E0,3.9192736E-2,-4.2087503E-2,2.1976337E-2],"split_indices":[152,6,0,29,0,81,0,91,0,52,0,69,0,0,0],"split_type":[0,0,0,0,0,0,0,0,0,0,0,0,0,0,0],"sum_hessian":[4.695091E3,4.6328696E3,6.222133E1,4.5223486E3,1.1052066E2,4.4366606E3,8.5688255E1,4.32604E3,1.1062066E2,4.215248E3,1.1079194E2,4.1490146E3,6.62331E1,4.023628E3,1.2538681E2],"tree_param":{"num_deleted":"0","num_feature":"1253","num_nodes":"15","size_leaf_vector":"1"}},{"base_weights":[6.25161E-2,2.2858795E-2,-0E0],"categories":[],"categories_nodes":[],"categories_segments":[],"categories_sizes":[],"default_left":[0,0,0],"id":52,"left_children":[1,-1,-1],"loss_changes":[8.312187E0,0E0,0E0],"parents":[2147483647,0,0],"right_children":[2,-1,-1],"split_conditions":[1E0,2.2858795E-2,-0E0],"split_indices":[14,0,0],"split_type":[0,0,0],"sum_hessian":[4.603866E3,4.498162E3,1.0570392E2],"tree_param":{"num_deleted":"0","num_feature":"1253","num_nodes":"3","size_leaf_vector":"1"}},{"base_weights":[4.4434305E-2,2.3480237E-3,6.680536E-2],"categories":[],"categories_nodes":[],"categories_segments":[],"categories_sizes":[],"default_left":[0,0,0],"id":53,"left_children":[1,-1,-1],"loss_changes":[7.7099133E0,0E0,0E0],"parents":[2147483647,0,0],"right_children":[2,-1,-1],"split_conditions":[1E0,2.3480237E-3,6.680536E-2],"split_indices":[1,0,0],"split_type":[0,0,0],"sum_hessian":[4.640824E3,4.4021475E3,2.3867676E2],"tree_param":{"num_deleted":"0","num_feature":"1253","num_nodes":"3","size_leaf_vector":"1"}},{"base_weights":[3.7235774E-2],"categories":[],"categories_nodes":[],"categories_segments":[],"categories_sizes":[],"default_left":[0],"id":54,"left_children":[-1],"loss_changes":[0E0],"parents":[2147483647],"right_children":[-1],"split_conditions":[1.1170733E-2],"split_indices":[0],"split_type":[0],"sum_hessian":[4.61003E3],"tree_param":{"num_deleted":"0","num_feature":"1253","num_nodes":"1","size_leaf_vector":"1"}},{"base_weights":[2.6572935E-2,-0E0,5.4529022E-2],"categories":[],"categories_nodes":[],"categories_segments":[],"categories_sizes":[],"default_left":[0,0,0],"id":55,"left_children":[1,-1,-1],"loss_changes":[7.3052044E0,0E0,0E0],"parents":[2147483647,0,0],"right_children":[2,-1,-1],"split_conditions":[1E0,-0E0,5.4529022E-2],"split_indices":[1,0,0],"split_type":[0,0,0],"sum_hessian":[4.6367896E3,4.4144346E3,2.2235529E2],"tree_param":{"num_deleted":"0","num_feature":"1253","num_nodes":"3","size_leaf_vector":"1"}},{"base_weights":[1.6463386E-2,-0E0,6.1594505E-2,-1.6455214E-3,4.6391107E-2,-3.0874828E-2,5.1982846E-2,-6.205115E-2,3.9394382E-2,-9.35486E-2,4.2447265E-2,-1.2780124E-1,3.3507936E-2,-4.8984453E-2,3.1170702E-2],"categories":[],"categories_nodes":[],"categories_segments":[],"categories_sizes":[],"default_left":[0,0,0,0,0,0,0,0,0,0,0,0,0,0,0],"id":56,"left_children":[1,3,-1,5,-1,7,-1,9,-1,11,-1,13,-1,-1,-1],"loss_changes":[6.4024696E0,7.39879E0,0E0,8.995875E0,0E0,1.6030838E1,0E0,2.3828012E1,0E0,3.2375393E1,0E0,4.0850502E1,0E0,0E0,0E0],"parents":[2147483647,0,0,1,1,3,3,5,5,7,7,9,9,11,11],"right_children":[2,4,-1,6,-1,8,-1,10,-1,12,-1,14,-1,-1,-1],"split_conditions":[1E0,1E0,6.1594505E-2,1E0,4.6391107E-2,1E0,5.1982846E-2,1E0,3.9394382E-2,1E0,4.2447265E-2,1E0,3.3507936E-2,-4.8984453E-2,3.1170702E-2],"split_indices":[138,1,0,152,0,36,0,29,0,3,0,82,0,0,0],"split_type":[0,0,0,0,0,0,0,0,0,0,0,0,0,0,0],"sum_hessian":[4.6312124E3,4.5489097E3,8.230264E1,4.340003E3,2.0890675E2,4.2790156E3,6.0987167E1,4.1580522E3,1.2096321E2,4.0730935E3,8.495899E1,3.9404385E3,1.3265503E2,3.817057E3,1.23381645E2],"tree_param":{"num_deleted":"0","num_feature":"1253","num_nodes":"15","size_leaf_vector":"1"}},{"base_weights":[5.441022E-2],"categories":[],"categories_nodes":[],"categories_segments":[],"categories_sizes":[],"default_left":[0],"id":57,"left_children":[-1],"loss_changes":[0E0],"parents":[2147483647],"right_children":[-1],"split_conditions":[1.6323067E-2],"split_indices":[0],"split_type":[0],"sum_hessian":[4.4975884E3],"tree_param":{"num_deleted":"0","num_feature":"1253","num_nodes":"1","size_leaf_vector":"1"}},{"base_weights":[3.7668746E-2,7.580397E-2,-0E0,2.7751813E-2,-0E0],"categories":[],"categories_nodes":[],"categories_segments":[],"categories_sizes":[],"default_left":[0,0,0,0,0],"id":58,"left_children":[1,3,-1,-1,-1],"loss_changes":[5.2640166E0,5.1663704E0,0E0,0E0,0E0],"parents":[2147483647,0,0,1,1],"right_children":[2,4,-1,-1,-1],"split_conditions":[1E0,1E0,-0E0,2.7751813E-2,-0E0],"split_indices":[4,10,0,0,0],"split_type":[0,0,0,0,0],"sum_hessian":[4.523932E3,1.9578792E3,2.566053E3,1.8855927E3,7.2286476E1],"tree_param":{"num_deleted":"0","num_feature":"1253","num_nodes":"5","size_leaf_vector":"1"}},{"base_weights":[2.7882306E-2],"categories":[],"categories_nodes":[],"categories_segments":[],"categories_sizes":[],"default_left":[0],"id":59,"left_children":[-1],"loss_changes":[0E0],"parents":[2147483647],"right_children":[-1],"split_conditions":[8.364692E-3],"split_indices":[0],"split_type":[0],"sum_hessian":[4.553579E3],"tree_param":{"num_deleted":"0","num_feature":"1253","num_nodes":"1","size_leaf_vector":"1"}},{"base_weights":[2.4509234E-2],"categories":[],"categories_nodes":[],"categories_segments":[],"categories_sizes":[],"default_left":[0],"id":60,"left_children":[-1],"loss_changes":[0E0],"parents":[2147483647],"right_children":[-1],"split_conditions":[7.352771E-3],"split_indices":[0],"split_type":[0],"sum_hessian":[4.5717524E3],"tree_param":{"num_deleted":"0","num_feature":"1253","num_nodes":"1","size_leaf_vector":"1"}},{"base_weights":[6.5823058E-3,-0E0,7.0710324E-2,-7.004638E-3,4.6163563E-2,-3.5124805E-2,4.1953236E-2,-6.478284E-2,3.6915395E-2,-9.498099E-2,2.5895603E-2,-1.2558904E-1,3.140411E-2,-4.6673723E-2,2.6271509E-2],"categories":[],"categories_nodes":[],"categories_segments":[],"categories_sizes":[],"default_left":[0,0,0,0,0,0,0,0,0,0,0,0,0,0,0],"id":61,"left_children":[1,3,-1,5,-1,7,-1,9,-1,11,-1,13,-1,-1,-1],"loss_changes":[7.0907125E0,5.094667E0,0E0,8.771998E0,0E0,1.5906475E1,0E0,2.1562906E1,0E0,2.9254318E1,0E0,3.467508E1,0E0,0E0,0E0],"parents":[2147483647,0,0,1,1,3,3,5,5,7,7,9,9,11,11],"right_children":[2,4,-1,6,-1,8,-1,10,-1,12,-1,14,-1,-1,-1],"split_conditions":[1E0,1E0,7.0710324E-2,1E0,4.6163563E-2,1E0,4.1953236E-2,1E0,3.6915395E-2,1E0,2.5895603E-2,1E0,3.140411E-2,-4.6673723E-2,2.6271509E-2],"split_indices":[349,6,0,138,0,81,0,3,0,29,0,52,0,0,0],"split_type":[0,0,0,0,0,0,0,0,0,0,0,0,0,0,0],"sum_hessian":[4.578291E3,4.5470083E3,3.1282644E1,4.4412593E3,1.0574904E2,4.362865E3,7.839427E1,4.256097E3,1.0676807E2,4.1297085E3,1.2638865E2,4.0472178E3,8.2490585E1,3.9829858E3,6.423201E1],"tree_param":{"num_deleted":"0","num_feature":"1253","num_nodes":"15","size_leaf_vector":"1"}},{"base_weights":[4.5767855E-2,1.7647704E-2,-0E0],"categories":[],"categories_nodes":[],"categories_segments":[],"categories_sizes":[],"default_left":[0,0,0],"id":62,"left_children":[1,-1,-1],"loss_changes":[5.8891354E0,0E0,0E0],"parents":[2147483647,0,0],"right_children":[2,-1,-1],"split_conditions":[1E0,1.7647704E-2,-0E0],"split_indices":[14,0,0],"split_type":[0,0,0],"sum_hessian":[4.4651025E3,4.3651978E3,9.9904526E1],"tree_param":{"num_deleted":"0","num_feature":"1253","num_nodes":"3","size_leaf_vector":"1"}},{"base_weights":[3.7866365E-2],"categories":[],"categories_nodes":[],"categories_segments":[],"categories_sizes":[],"default_left":[0],"id":63,"left_children":[-1],"loss_changes":[0E0],"parents":[2147483647],"right_children":[-1],"split_conditions":[1.135991E-2],"split_indices":[0],"split_type":[0],"sum_hessian":[4.4930303E3],"tree_param":{"num_deleted":"0","num_feature":"1253","num_nodes":"1","size_leaf_vector":"1"}},{"base_weights":[1.835987E-2],"categories":[],"categories_nodes":[],"categories_segments":[],"categories_sizes":[],"default_left":[0],"id":64,"left_children":[-1],"loss_changes":[0E0],"parents":[2147483647],"right_children":[-1],"split_conditions":[5.507961E-3],"split_indices":[0],"split_type":[0],"sum_hessian":[4.530375E3],"tree_param":{"num_deleted":"0","num_feature":"1253","num_nodes":"1","size_leaf_vector":"1"}},{"base_weights":[1.2939864E-2],"categories":[],"categories_nodes":[],"categories_segments":[],"categories_sizes":[],"default_left":[0],"id":65,"left_children":[-1],"loss_changes":[0E0],"parents":[2147483647],"right_children":[-1],"split_conditions":[3.8819592E-3],"split_indices":[0],"split_type":[0],"sum_hessian":[4.5359546E3],"tree_param":{"num_deleted":"0","num_feature":"1253","num_nodes":"1","size_leaf_vector":"1"}},{"base_weights":[9.681104E-3],"categories":[],"categories_nodes":[],"categories_segments":[],"categories_sizes":[],"default_left":[0],"id":66,"left_children":[-1],"loss_changes":[0E0],"parents":[2147483647],"right_children":[-1],"split_conditions":[2.9043313E-3],"split_indices":[0],"split_type":[0],"sum_hessian":[4.5514707E3],"tree_param":{"num_deleted":"0","num_feature":"1253","num_nodes":"1","size_leaf_vector":"1"}},{"base_weights":[6.490899E-3],"categories":[],"categories_nodes":[],"categories_segments":[],"categories_sizes":[],"default_left":[0],"id":67,"left_children":[-1],"loss_changes":[0E0],"parents":[2147483647],"right_children":[-1],"split_conditions":[1.9472697E-3],"split_indices":[0],"split_type":[0],"sum_hessian":[4.534682E3],"tree_param":{"num_deleted":"0","num_feature":"1253","num_nodes":"1","size_leaf_vector":"1"}},{"base_weights":[2.8293438E-3,-0E0,7.147281E-2],"categories":[],"categories_nodes":[],"categories_segments":[],"categories_sizes":[],"default_left":[0,0,0],"id":68,"left_children":[1,-1,-1],"loss_changes":[7.5288806E0,0E0,0E0],"parents":[2147483647,0,0],"right_children":[2,-1,-1],"split_conditions":[1E0,-0E0,7.147281E-2],"split_indices":[349,0,0],"split_type":[0,0,0],"sum_hessian":[4.550618E3,4.517317E3,3.330102E1],"tree_param":{"num_deleted":"0","num_feature":"1253","num_nodes":"3","size_leaf_vector":"1"}},{"base_weights":[6.152529E-3],"categories":[],"categories_nodes":[],"categories_segments":[],"categories_sizes":[],"default_left":[0],"id":69,"left_children":[-1],"loss_changes":[0E0],"parents":[2147483647],"right_children":[-1],"split_conditions":[1.8457588E-3],"split_indices":[0],"split_type":[0],"sum_hessian":[4.550067E3],"tree_param":{"num_deleted":"0","num_feature":"1253","num_nodes":"1","size_leaf_vector":"1"}},{"base_weights":[3.6155835E-3],"categories":[],"categories_nodes":[],"categories_segments":[],"categories_sizes":[],"default_left":[0],"id":70,"left_children":[-1],"loss_changes":[0E0],"parents":[2147483647],"right_children":[-1],"split_conditions":[1.0846751E-3],"split_indices":[0],"split_type":[0],"sum_hessian":[4.53768E3],"tree_param":{"num_deleted":"0","num_feature":"1253","num_nodes":"1","size_leaf_vector":"1"}},{"base_weights":[3.1444062E-3,-0E0,5.1017478E-2],"categories":[],"categories_nodes":[],"categories_segments":[],"categories_sizes":[],"default_left":[0,0,0],"id":71,"left_children":[1,-1,-1],"loss_changes":[5.0382648E0,0E0,0E0],"parents":[2147483647,0,0],"right_children":[2,-1,-1],"split_conditions":[1E0,-0E0,5.1017478E-2],"split_indices":[62,0,0],"split_type":[0,0,0],"sum_hessian":[4.5628535E3,4.4870444E3,7.580914E1],"tree_param":{"num_deleted":"0","num_feature":"1253","num_nodes":"3","size_leaf_vector":"1"}},{"base_weights":[3.7365542E-3],"categories":[],"categories_nodes":[],"categories_segments":[],"categories_sizes":[],"default_left":[0],"id":72,"left_children":[-1],"loss_changes":[0E0],"parents":[2147483647],"right_children":[-1],"split_conditions":[1.1209663E-3],"split_indices":[0],"split_type":[0],"sum_hessian":[4.5596763E3],"tree_param":{"num_deleted":"0","num_feature":"1253","num_nodes":"1","size_leaf_vector":"1"}},{"base_weights":[-0E0],"categories":[],"categories_nodes":[],"categories_segments":[],"categories_sizes":[],"default_left":[0],"id":73,"left_children":[-1],"loss_changes":[0E0],"parents":[2147483647],"right_children":[-1],"split_conditions":[-0E0],"split_indices":[0],"split_type":[0],"sum_hessian":[4.537444E3],"tree_param":{"num_deleted":"0","num_feature":"1253","num_nodes":"1","size_leaf_vector":"1"}},{"base_weights":[-0E0],"categories":[],"categories_nodes":[],"categories_segments":[],"categories_sizes":[],"default_left":[0],"id":74,"left_children":[-1],"loss_changes":[0E0],"parents":[2147483647],"right_children":[-1],"split_conditions":[-0E0],"split_indices":[0],"split_type":[0],"sum_hessian":[4.558295E3],"tree_param":{"num_deleted":"0","num_feature":"1253","num_nodes":"1","size_leaf_vector":"1"}},{"base_weights":[5.779049E-3],"categories":[],"categories_nodes":[],"categories_segments":[],"categories_sizes":[],"default_left":[0],"id":75,"left_children":[-1],"loss_changes":[0E0],"parents":[2147483647],"right_children":[-1],"split_conditions":[1.7337147E-3],"split_indices":[0],"split_type":[0],"sum_hessian":[4.5614263E3],"tree_param":{"num_deleted":"0","num_feature":"1253","num_nodes":"1","size_leaf_vector":"1"}},{"base_weights":[-0E0],"categories":[],"categories_nodes":[],"categories_segments":[],"categories_sizes":[],"default_left":[0],"id":76,"left_children":[-1],"loss_changes":[0E0],"parents":[2147483647],"right_children":[-1],"split_conditions":[-0E0],"split_indices":[0],"split_type":[0],"sum_hessian":[4.5498936E3],"tree_param":{"num_deleted":"0","num_feature":"1253","num_nodes":"1","size_leaf_vector":"1"}},{"base_weights":[-0E0],"categories":[],"categories_nodes":[],"categories_segments":[],"categories_sizes":[],"default_left":[0],"id":77,"left_children":[-1],"loss_changes":[0E0],"parents":[2147483647],"right_children":[-1],"split_conditions":[-0E0],"split_indices":[0],"split_type":[0],"sum_hessian":[4.5498774E3],"tree_param":{"num_deleted":"0","num_feature":"1253","num_nodes":"1","size_leaf_vector":"1"}},{"base_weights":[-0E0],"categories":[],"categories_nodes":[],"categories_segments":[],"categories_sizes":[],"default_left":[0],"id":78,"left_children":[-1],"loss_changes":[0E0],"parents":[2147483647],"right_children":[-1],"split_conditions":[-0E0],"split_indices":[0],"split_type":[0],"sum_hessian":[4.553167E3],"tree_param":{"num_deleted":"0","num_feature":"1253","num_nodes":"1","size_leaf_vector":"1"}},{"base_weights":[-0E0],"categories":[],"categories_nodes":[],"categories_segments":[],"categories_sizes":[],"default_left":[0],"id":79,"left_children":[-1],"loss_changes":[0E0],"parents":[2147483647],"right_children":[-1],"split_conditions":[-0E0],"split_indices":[0],"split_type":[0],"sum_hessian":[4.5478467E3],"tree_param":{"num_deleted":"0","num_feature":"1253","num_nodes":"1","size_leaf_vector":"1"}},{"base_weights":[-0E0,-0E0,5.903269E-2],"categories":[],"categories_nodes":[],"categories_segments":[],"categories_sizes":[],"default_left":[0,0,0],"id":80,"left_children":[1,-1,-1],"loss_changes":[5.1754613E0,0E0,0E0],"parents":[2147483647,0,0],"right_children":[2,-1,-1],"split_conditions":[1E0,-0E0,5.903269E-2],"split_indices":[349,0,0],"split_type":[0,0,0],"sum_hessian":[4.5572705E3,4.523609E3,3.366154E1],"tree_param":{"num_deleted":"0","num_feature":"1253","num_nodes":"3","size_leaf_vector":"1"}},{"base_weights":[-0E0,-0E0,5.2603614E-2],"categories":[],"categories_nodes":[],"categories_segments":[],"categories_sizes":[],"default_left":[0,0,0],"id":81,"left_children":[1,-1,-1],"loss_changes":[5.0824203E0,0E0,0E0],"parents":[2147483647,0,0],"right_children":[2,-1,-1],"split_conditions":[1E0,-0E0,5.2603614E-2],"split_indices":[152,0,0],"split_type":[0,0,0],"sum_hessian":[4.546234E3,4.48093E3,6.530346E1],"tree_param":{"num_deleted":"0","num_feature":"1253","num_nodes":"3","size_leaf_vector":"1"}},{"base_weights":[1.5848038E-4],"categories":[],"categories_nodes":[],"categories_segments":[],"categories_sizes":[],"default_left":[0],"id":82,"left_children":[-1],"loss_changes":[0E0],"parents":[2147483647],"right_children":[-1],"split_conditions":[4.7544116E-5],"split_indices":[0],"split_type":[0],"sum_hessian":[4.550667E3],"tree_param":{"num_deleted":"0","num_feature":"1253","num_nodes":"1","size_leaf_vector":"1"}},{"base_weights":[-0E0],"categories":[],"categories_nodes":[],"categories_segments":[],"categories_sizes":[],"default_left":[0],"id":83,"left_children":[-1],"loss_changes":[0E0],"parents":[2147483647],"right_children":[-1],"split_conditions":[-0E0],"split_indices":[0],"split_type":[0],"sum_hessian":[4.5631807E3],"tree_param":{"num_deleted":"0","num_feature":"1253","num_nodes":"1","size_leaf_vector":"1"}},{"base_weights":[-0E0],"categories":[],"categories_nodes":[],"categories_segments":[],"categories_sizes":[],"default_left":[0],"id":84,"left_children":[-1],"loss_changes":[0E0],"parents":[2147483647],"right_children":[-1],"split_conditions":[-0E0],"split_indices":[0],"split_type":[0],"sum_hessian":[4.5730156E3],"tree_param":{"num_deleted":"0","num_feature":"1253","num_nodes":"1","size_leaf_vector":"1"}},{"base_weights":[-0E0],"categories":[],"categories_nodes":[],"categories_segments":[],"categories_sizes":[],"default_left":[0],"id":85,"left_children":[-1],"loss_changes":[0E0],"parents":[2147483647],"right_children":[-1],"split_conditions":[-0E0],"split_indices":[0],"split_type":[0],"sum_hessian":[4.5497314E3],"tree_param":{"num_deleted":"0","num_feature":"1253","num_nodes":"1","size_leaf_vector":"1"}},{"base_weights":[-0E0],"categories":[],"categories_nodes":[],"categories_segments":[],"categories_sizes":[],"default_left":[0],"id":86,"left_children":[-1],"loss_changes":[0E0],"parents":[2147483647],"right_children":[-1],"split_conditions":[-0E0],"split_indices":[0],"split_type":[0],"sum_hessian":[4.560574E3],"tree_param":{"num_deleted":"0","num_feature":"1253","num_nodes":"1","size_leaf_vector":"1"}},{"base_weights":[-0E0],"categories":[],"categories_nodes":[],"categories_segments":[],"categories_sizes":[],"default_left":[0],"id":87,"left_children":[-1],"loss_changes":[0E0],"parents":[2147483647],"right_children":[-1],"split_conditions":[-0E0],"split_indices":[0],"split_type":[0],"sum_hessian":[4.5620215E3],"tree_param":{"num_deleted":"0","num_feature":"1253","num_nodes":"1","size_leaf_vector":"1"}},{"base_weights":[-0E0],"categories":[],"categories_nodes":[],"categories_segments":[],"categories_sizes":[],"default_left":[0],"id":88,"left_children":[-1],"loss_changes":[0E0],"parents":[2147483647],"right_children":[-1],"split_conditions":[-0E0],"split_indices":[0],"split_type":[0],"sum_hessian":[4.558604E3],"tree_param":{"num_deleted":"0","num_feature":"1253","num_nodes":"1","size_leaf_vector":"1"}},{"base_weights":[6.4001647E-3],"categories":[],"categories_nodes":[],"categories_segments":[],"categories_sizes":[],"default_left":[0],"id":89,"left_children":[-1],"loss_changes":[0E0],"parents":[2147483647],"right_children":[-1],"split_conditions":[1.9200494E-3],"split_indices":[0],"split_type":[0],"sum_hessian":[4.573409E3],"tree_param":{"num_deleted":"0","num_feature":"1253","num_nodes":"1","size_leaf_vector":"1"}},{"base_weights":[-0E0],"categories":[],"categories_nodes":[],"categories_segments":[],"categories_sizes":[],"default_left":[0],"id":90,"left_children":[-1],"loss_changes":[0E0],"parents":[2147483647],"right_children":[-1],"split_conditions":[-0E0],"split_indices":[0],"split_type":[0],"sum_hessian":[4.5580376E3],"tree_param":{"num_deleted":"0","num_feature":"1253","num_nodes":"1","size_leaf_vector":"1"}},{"base_weights":[1.0890682E-3],"categories":[],"categories_nodes":[],"categories_segments":[],"categories_sizes":[],"default_left":[0],"id":91,"left_children":[-1],"loss_changes":[0E0],"parents":[2147483647],"right_children":[-1],"split_conditions":[3.2672047E-4],"split_indices":[0],"split_type":[0],"sum_hessian":[4.562094E3],"tree_param":{"num_deleted":"0","num_feature":"1253","num_nodes":"1","size_leaf_vector":"1"}},{"base_weights":[-0E0],"categories":[],"categories_nodes":[],"categories_segments":[],"categories_sizes":[],"default_left":[0],"id":92,"left_children":[-1],"loss_changes":[0E0],"parents":[2147483647],"right_children":[-1],"split_conditions":[-0E0],"split_indices":[0],"split_type":[0],"sum_hessian":[4.5624766E3],"tree_param":{"num_deleted":"0","num_feature":"1253","num_nodes":"1","size_leaf_vector":"1"}},{"base_weights":[-0E0],"categories":[],"categories_nodes":[],"categories_segments":[],"categories_sizes":[],"default_left":[0],"id":93,"left_children":[-1],"loss_changes":[0E0],"parents":[2147483647],"right_children":[-1],"split_conditions":[-0E0],"split_indices":[0],"split_type":[0],"sum_hessian":[4.55022E3],"tree_param":{"num_deleted":"0","num_feature":"1253","num_nodes":"1","size_leaf_vector":"1"}},{"base_weights":[-0E0],"categories":[],"categories_nodes":[],"categories_segments":[],"categories_sizes":[],"default_left":[0],"id":94,"left_children":[-1],"loss_changes":[0E0],"parents":[2147483647],"right_children":[-1],"split_conditions":[-0E0],"split_indices":[0],"split_type":[0],"sum_hessian":[4.5662104E3],"tree_param":{"num_deleted":"0","num_feature":"1253","num_nodes":"1","size_leaf_vector":"1"}},{"base_weights":[-0E0,-0E0,6.2759295E-2],"categories":[],"categories_nodes":[],"categories_segments":[],"categories_sizes":[],"default_left":[0,0,0],"id":95,"left_children":[1,-1,-1],"loss_changes":[5.9190617E0,0E0,0E0],"parents":[2147483647,0,0],"right_children":[2,-1,-1],"split_conditions":[1E0,-0E0,6.2759295E-2],"split_indices":[349,0,0],"split_type":[0,0,0],"sum_hessian":[4.564122E3,4.5288716E3,3.525062E1],"tree_param":{"num_deleted":"0","num_feature":"1253","num_nodes":"3","size_leaf_vector":"1"}},{"base_weights":[-0E0],"categories":[],"categories_nodes":[],"categories_segments":[],"categories_sizes":[],"default_left":[0],"id":96,"left_children":[-1],"loss_changes":[0E0],"parents":[2147483647],"right_children":[-1],"split_conditions":[-0E0],"split_indices":[0],"split_type":[0],"sum_hessian":[4.55412E3],"tree_param":{"num_deleted":"0","num_feature":"1253","num_nodes":"1","size_leaf_vector":"1"}},{"base_weights":[-0E0],"categories":[],"categories_nodes":[],"categories_segments":[],"categories_sizes":[],"default_left":[0],"id":97,"left_children":[-1],"loss_changes":[0E0],"parents":[2147483647],"right_children":[-1],"split_conditions":[-0E0],"split_indices":[0],"split_type":[0],"sum_hessian":[4.566193E3],"tree_param":{"num_deleted":"0","num_feature":"1253","num_nodes":"1","size_leaf_vector":"1"}},{"base_weights":[-0E0],"categories":[],"categories_nodes":[],"categories_segments":[],"categories_sizes":[],"default_left":[0],"id":98,"left_children":[-1],"loss_changes":[0E0],"parents":[2147483647],"right_children":[-1],"split_conditions":[-0E0],"split_indices":[0],"split_type":[0],"sum_hessian":[4.5489937E3],"tree_param":{"num_deleted":"0","num_feature":"1253","num_nodes":"1","size_leaf_vector":"1"}},{"base_weights":[-0E0],"categories":[],"categories_nodes":[],"categories_segments":[],"categories_sizes":[],"default_left":[0],"id":99,"left_children":[-1],"loss_changes":[0E0],"parents":[2147483647],"right_children":[-1],"split_conditions":[-0E0],"split_indices":[0],"split_type":[0],"sum_hessian":[4.5798535E3],"tree_param":{"num_deleted":"0","num_feature":"1253","num_nodes":"1","size_leaf_vector":"1"}},{"base_weights":[-0E0],"categories":[],"categories_nodes":[],"categories_segments":[],"categories_sizes":[],"default_left":[0],"id":100,"left_children":[-1],"loss_changes":[0E0],"parents":[2147483647],"right_children":[-1],"split_conditions":[-0E0],"split_indices":[0],"split_type":[0],"sum_hessian":[4.5665176E3],"tree_param":{"num_deleted":"0","num_feature":"1253","num_nodes":"1","size_leaf_vector":"1"}},{"base_weights":[3.070061E-3],"categories":[],"categories_nodes":[],"categories_segments":[],"categories_sizes":[],"default_left":[0],"id":101,"left_children":[-1],"loss_changes":[0E0],"parents":[2147483647],"right_children":[-1],"split_conditions":[9.2101836E-4],"split_indices":[0],"split_type":[0],"sum_hessian":[4.5725396E3],"tree_param":{"num_deleted":"0","num_feature":"1253","num_nodes":"1","size_leaf_vector":"1"}},{"base_weights":[-0E0,-0E0,5.8652036E-2,-1.922199E-2,4.3942697E-2,-4.7896802E-2,3.80833E-2,-7.957335E-2,2.6505105E-2,-1.093424E-1,3.0950623E-2,-1.3982496E-1,1.5084171E-2,-5.1354375E-2,1.0275698E-2],"categories":[],"categories_nodes":[],"categories_segments":[],"categories_sizes":[],"default_left":[0,0,0,0,0,0,0,0,0,0,0,0,0,0,0],"id":102,"left_children":[1,3,-1,5,-1,7,-1,9,-1,11,-1,13,-1,-1,-1],"loss_changes":[5.238396E0,5.2158103E0,0E0,1.1782231E1,0E0,1.9031006E1,0E0,2.4913136E1,0E0,3.0002335E1,0E0,3.645835E1,0E0,0E0,0E0],"parents":[2147483647,0,0,1,1,3,3,5,5,7,7,9,9,11,11],"right_children":[2,4,-1,6,-1,8,-1,10,-1,12,-1,14,-1,-1,-1],"split_conditions":[1E0,1E0,5.8652036E-2,1E0,4.3942697E-2,1E0,3.80833E-2,1E0,2.6505105E-2,1E0,3.0950623E-2,1E0,1.5084171E-2,-5.1354375E-2,1.0275698E-2],"split_indices":[349,152,0,6,0,1,0,138,0,82,0,3,0,0,0],"split_type":[0,0,0,0,0,0,0,0,0,0,0,0,0,0,0],"sum_hessian":[4.5538076E3,4.516759E3,3.7048634E1,4.452048E3,6.471118E1,4.3500425E3,1.0200507E2,4.1587236E3,1.9131874E2,4.081263E3,7.7460815E1,3.9632888E3,1.17974106E2,3.8465386E3,1.1675025E2],"tree_param":{"num_deleted":"0","num_feature":"1253","num_nodes":"15","size_leaf_vector":"1"}},{"base_weights":[3.8999632E-2,1.5705513E-2,-0E0],"categories":[],"categories_nodes":[],"categories_segments":[],"categories_sizes":[],"default_left":[0,0,0],"id":103,"left_children":[1,-1,-1],"loss_changes":[5.2439966E0,0E0,0E0],"parents":[2147483647,0,0],"right_children":[2,-1,-1],"split_conditions":[1E0,1.5705513E-2,-0E0],"split_indices":[14,0,0],"split_type":[0,0,0],"sum_hessian":[4.420121E3,4.3218506E3,9.8270874E1],"tree_param":{"num_deleted":"0","num_feature":"1253","num_nodes":"3","size_leaf_vector":"1"}},{"base_weights":[1.881426E-2],"categories":[],"categories_nodes":[],"categories_segments":[],"categories_sizes":[],"default_left":[0],"id":104,"left_children":[-1],"loss_changes":[0E0],"parents":[2147483647],"right_children":[-1],"split_conditions":[5.644278E-3],"split_indices":[0],"split_type":[0],"sum_hessian":[4.4455586E3],"tree_param":{"num_deleted":"0","num_feature":"1253","num_nodes":"1","size_leaf_vector":"1"}},{"base_weights":[1.7568417E-2],"categories":[],"categories_nodes":[],"categories_segments":[],"categories_sizes":[],"default_left":[0],"id":105,"left_children":[-1],"loss_changes":[0E0],"parents":[2147483647],"right_children":[-1],"split_conditions":[5.2705253E-3],"split_indices":[0],"split_type":[0],"sum_hessian":[4.4896978E3],"tree_param":{"num_deleted":"0","num_feature":"1253","num_nodes":"1","size_leaf_vector":"1"}},{"base_weights":[4.5624007E-3],"categories":[],"categories_nodes":[],"categories_segments":[],"categories_sizes":[],"default_left":[0],"id":106,"left_children":[-1],"loss_changes":[0E0],"parents":[2147483647],"right_children":[-1],"split_conditions":[1.3687203E-3],"split_indices":[0],"split_type":[0],"sum_hessian":[4.459836E3],"tree_param":{"num_deleted":"0","num_feature":"1253","num_nodes":"1","size_leaf_vector":"1"}},{"base_weights":[2.1261408E-3],"categories":[],"categories_nodes":[],"categories_segments":[],"categories_sizes":[],"default_left":[0],"id":107,"left_children":[-1],"loss_changes":[0E0],"parents":[2147483647],"right_children":[-1],"split_conditions":[6.378422E-4],"split_indices":[0],"split_type":[0],"sum_hessian":[4.4761543E3],"tree_param":{"num_deleted":"0","num_feature":"1253","num_nodes":"1","size_leaf_vector":"1"}},{"base_weights":[3.5719017E-3],"categories":[],"categories_nodes":[],"categories_segments":[],"categories_sizes":[],"default_left":[0],"id":108,"left_children":[-1],"loss_changes":[0E0],"parents":[2147483647],"right_children":[-1],"split_conditions":[1.0715706E-3],"split_indices":[0],"split_type":[0],"sum_hessian":[4.4911885E3],"tree_param":{"num_deleted":"0","num_feature":"1253","num_nodes":"1","size_leaf_vector":"1"}},{"base_weights":[-0E0],"categories":[],"categories_nodes":[],"categories_segments":[],"categories_sizes":[],"default_left":[0],"id":109,"left_children":[-1],"loss_changes":[0E0],"parents":[2147483647],"right_children":[-1],"split_conditions":[-0E0],"split_indices":[0],"split_type":[0],"sum_hessian":[4.4950723E3],"tree_param":{"num_deleted":"0","num_feature":"1253","num_nodes":"1","size_leaf_vector":"1"}},{"base_weights":[5.628196E-4],"categories":[],"categories_nodes":[],"categories_segments":[],"categories_sizes":[],"default_left":[0],"id":110,"left_children":[-1],"loss_changes":[0E0],"parents":[2147483647],"right_children":[-1],"split_conditions":[1.6884589E-4],"split_indices":[0],"split_type":[0],"sum_hessian":[4.471991E3],"tree_param":{"num_deleted":"0","num_feature":"1253","num_nodes":"1","size_leaf_vector":"1"}},{"base_weights":[1.1628638E-3],"categories":[],"categories_nodes":[],"categories_segments":[],"categories_sizes":[],"default_left":[0],"id":111,"left_children":[-1],"loss_changes":[0E0],"parents":[2147483647],"right_children":[-1],"split_conditions":[3.4885915E-4],"split_indices":[0],"split_type":[0],"sum_hessian":[4.4807505E3],"tree_param":{"num_deleted":"0","num_feature":"1253","num_nodes":"1","size_leaf_vector":"1"}},{"base_weights":[4.90722E-3],"categories":[],"categories_nodes":[],"categories_segments":[],"categories_sizes":[],"default_left":[0],"id":112,"left_children":[-1],"loss_changes":[0E0],"parents":[2147483647],"right_children":[-1],"split_conditions":[1.4721662E-3],"split_indices":[0],"split_type":[0],"sum_hessian":[4.4950107E3],"tree_param":{"num_deleted":"0","num_feature":"1253","num_nodes":"1","size_leaf_vector":"1"}},{"base_weights":[-0E0],"categories":[],"categories_nodes":[],"categories_segments":[],"categories_sizes":[],"default_left":[0],"id":113,"left_children":[-1],"loss_changes":[0E0],"parents":[2147483647],"right_children":[-1],"split_conditions":[-0E0],"split_indices":[0],"split_type":[0],"sum_hessian":[4.4891567E3],"tree_param":{"num_deleted":"0","num_feature":"1253","num_nodes":"1","size_leaf_vector":"1"}},{"base_weights":[-0E0],"categories":[],"categories_nodes":[],"categories_segments":[],"categories_sizes":[],"default_left":[0],"id":114,"left_children":[-1],"loss_changes":[0E0],"parents":[2147483647],"right_children":[-1],"split_conditions":[-0E0],"split_indices":[0],"split_type":[0],"sum_hessian":[4.4999062E3],"tree_param":{"num_deleted":"0","num_feature":"1253","num_nodes":"1","size_leaf_vector":"1"}},{"base_weights":[-0E0],"categories":[],"categories_nodes":[],"categories_segments":[],"categories_sizes":[],"default_left":[0],"id":115,"left_children":[-1],"loss_changes":[0E0],"parents":[2147483647],"right_children":[-1],"split_conditions":[-0E0],"split_indices":[0],"split_type":[0],"sum_hessian":[4.4687656E3],"tree_param":{"num_deleted":"0","num_feature":"1253","num_nodes":"1","size_leaf_vector":"1"}},{"base_weights":[-0E0],"categories":[],"categories_nodes":[],"categories_segments":[],"categories_sizes":[],"default_left":[0],"id":116,"left_children":[-1],"loss_changes":[0E0],"parents":[2147483647],"right_children":[-1],"split_conditions":[-0E0],"split_indices":[0],"split_type":[0],"sum_hessian":[4.4840547E3],"tree_param":{"num_deleted":"0","num_feature":"1253","num_nodes":"1","size_leaf_vector":"1"}},{"base_weights":[2.875518E-3],"categories":[],"categories_nodes":[],"categories_segments":[],"categories_sizes":[],"default_left":[0],"id":117,"left_children":[-1],"loss_changes":[0E0],"parents":[2147483647],"right_children":[-1],"split_conditions":[8.6265546E-4],"split_indices":[0],"split_type":[0],"sum_hessian":[4.4885566E3],"tree_param":{"num_deleted":"0","num_feature":"1253","num_nodes":"1","size_leaf_vector":"1"}},{"base_weights":[-0E0],"categories":[],"categories_nodes":[],"categories_segments":[],"categories_sizes":[],"default_left":[0],"id":118,"left_children":[-1],"loss_changes":[0E0],"parents":[2147483647],"right_children":[-1],"split_conditions":[-0E0],"split_indices":[0],"split_type":[0],"sum_hessian":[4.4904814E3],"tree_param":{"num_deleted":"0","num_feature":"1253","num_nodes":"1","size_leaf_vector":"1"}},{"base_weights":[3.2872795E-3],"categories":[],"categories_nodes":[],"categories_segments":[],"categories_sizes":[],"default_left":[0],"id":119,"left_children":[-1],"loss_changes":[0E0],"parents":[2147483647],"right_children":[-1],"split_conditions":[9.861839E-4],"split_indices":[0],"split_type":[0],"sum_hessian":[4.4972407E3],"tree_param":{"num_deleted":"0","num_feature":"1253","num_nodes":"1","size_leaf_vector":"1"}},{"base_weights":[1.2889605E-3],"categories":[],"categories_nodes":[],"categories_segments":[],"categories_sizes":[],"default_left":[0],"id":120,"left_children":[-1],"loss_changes":[0E0],"parents":[2147483647],"right_children":[-1],"split_conditions":[3.8668816E-4],"split_indices":[0],"split_type":[0],"sum_hessian":[4.4834224E3],"tree_param":{"num_deleted":"0","num_feature":"1253","num_nodes":"1","size_leaf_vector":"1"}},{"base_weights":[-0E0],"categories":[],"categories_nodes":[],"categories_segments":[],"categories_sizes":[],"default_left":[0],"id":121,"left_children":[-1],"loss_changes":[0E0],"parents":[2147483647],"right_children":[-1],"split_conditions":[-0E0],"split_indices":[0],"split_type":[0],"sum_hessian":[4.5015576E3],"tree_param":{"num_deleted":"0","num_feature":"1253","num_nodes":"1","size_leaf_vector":"1"}},{"base_weights":[-0E0],"categories":[],"categories_nodes":[],"categories_segments":[],"categories_sizes":[],"default_left":[0],"id":122,"left_children":[-1],"loss_changes":[0E0],"parents":[2147483647],"right_children":[-1],"split_conditions":[-0E0],"split_indices":[0],"split_type":[0],"sum_hessian":[4.5071E3],"tree_param":{"num_deleted":"0","num_feature":"1253","num_nodes":"1","size_leaf_vector":"1"}},{"base_weights":[9.444082E-6],"categories":[],"categories_nodes":[],"categories_segments":[],"categories_sizes":[],"default_left":[0],"id":123,"left_children":[-1],"loss_changes":[0E0],"parents":[2147483647],"right_children":[-1],"split_conditions":[2.8332247E-6],"split_indices":[0],"split_type":[0],"sum_hessian":[4.4923105E3],"tree_param":{"num_deleted":"0","num_feature":"1253","num_nodes":"1","size_leaf_vector":"1"}},{"base_weights":[3.4258117E-3],"categories":[],"categories_nodes":[],"categories_segments":[],"categories_sizes":[],"default_left":[0],"id":124,"left_children":[-1],"loss_changes":[0E0],"parents":[2147483647],"right_children":[-1],"split_conditions":[1.0277436E-3],"split_indices":[0],"split_type":[0],"sum_hessian":[4.4913213E3],"tree_param":{"num_deleted":"0","num_feature":"1253","num_nodes":"1","size_leaf_vector":"1"}},{"base_weights":[1.5975814E-3],"categories":[],"categories_nodes":[],"categories_segments":[],"categories_sizes":[],"default_left":[0],"id":125,"left_children":[-1],"loss_changes":[0E0],"parents":[2147483647],"right_children":[-1],"split_conditions":[4.7927446E-4],"split_indices":[0],"split_type":[0],"sum_hessian":[4.4896826E3],"tree_param":{"num_deleted":"0","num_feature":"1253","num_nodes":"1","size_leaf_vector":"1"}},{"base_weights":[-0E0],"categories":[],"categories_nodes":[],"categories_segments":[],"categories_sizes":[],"default_left":[0],"id":126,"left_children":[-1],"loss_changes":[0E0],"parents":[2147483647],"right_children":[-1],"split_conditions":[-0E0],"split_indices":[0],"split_type":[0],"sum_hessian":[4.5277915E3],"tree_param":{"num_deleted":"0","num_feature":"1253","num_nodes":"1","size_leaf_vector":"1"}},{"base_weights":[-0E0],"categories":[],"categories_nodes":[],"categories_segments":[],"categories_sizes":[],"default_left":[0],"id":127,"left_children":[-1],"loss_changes":[0E0],"parents":[2147483647],"right_children":[-1],"split_conditions":[-0E0],"split_indices":[0],"split_type":[0],"sum_hessian":[4.4994507E3],"tree_param":{"num_deleted":"0","num_feature":"1253","num_nodes":"1","size_leaf_vector":"1"}},{"base_weights":[-0E0],"categories":[],"categories_nodes":[],"categories_segments":[],"categories_sizes":[],"default_left":[0],"id":128,"left_children":[-1],"loss_changes":[0E0],"parents":[2147483647],"right_children":[-1],"split_conditions":[-0E0],"split_indices":[0],"split_type":[0],"sum_hessian":[4.5002905E3],"tree_param":{"num_deleted":"0","num_feature":"1253","num_nodes":"1","size_leaf_vector":"1"}},{"base_weights":[-0E0],"categories":[],"categories_nodes":[],"categories_segments":[],"categories_sizes":[],"default_left":[0],"id":129,"left_children":[-1],"loss_changes":[0E0],"parents":[2147483647],"right_children":[-1],"split_conditions":[-0E0],"split_indices":[0],"split_type":[0],"sum_hessian":[4.478616E3],"tree_param":{"num_deleted":"0","num_feature":"1253","num_nodes":"1","size_leaf_vector":"1"}},{"base_weights":[-0E0],"categories":[],"categories_nodes":[],"categories_segments":[],"categories_sizes":[],"default_left":[0],"id":130,"left_children":[-1],"loss_changes":[0E0],"parents":[2147483647],"right_children":[-1],"split_conditions":[-0E0],"split_indices":[0],"split_type":[0],"sum_hessian":[4.5008955E3],"tree_param":{"num_deleted":"0","num_feature":"1253","num_nodes":"1","size_leaf_vector":"1"}},{"base_weights":[2.333215E-3],"categories":[],"categories_nodes":[],"categories_segments":[],"categories_sizes":[],"default_left":[0],"id":131,"left_children":[-1],"loss_changes":[0E0],"parents":[2147483647],"right_children":[-1],"split_conditions":[6.999645E-4],"split_indices":[0],"split_type":[0],"sum_hessian":[4.500408E3],"tree_param":{"num_deleted":"0","num_feature":"1253","num_nodes":"1","size_leaf_vector":"1"}},{"base_weights":[-0E0],"categories":[],"categories_nodes":[],"categories_segments":[],"categories_sizes":[],"default_left":[0],"id":132,"left_children":[-1],"loss_changes":[0E0],"parents":[2147483647],"right_children":[-1],"split_conditions":[-0E0],"split_indices":[0],"split_type":[0],"sum_hessian":[4.4922954E3],"tree_param":{"num_deleted":"0","num_feature":"1253","num_nodes":"1","size_leaf_vector":"1"}},{"base_weights":[-0E0],"categories":[],"categories_nodes":[],"categories_segments":[],"categories_sizes":[],"default_left":[0],"id":133,"left_children":[-1],"loss_changes":[0E0],"parents":[2147483647],"right_children":[-1],"split_conditions":[-0E0],"split_indices":[0],"split_type":[0],"sum_hessian":[4.5068843E3],"tree_param":{"num_deleted":"0","num_feature":"1253","num_nodes":"1","size_leaf_vector":"1"}},{"base_weights":[-0E0],"categories":[],"categories_nodes":[],"categories_segments":[],"categories_sizes":[],"default_left":[0],"id":134,"left_children":[-1],"loss_changes":[0E0],"parents":[2147483647],"right_children":[-1],"split_conditions":[-0E0],"split_indices":[0],"split_type":[0],"sum_hessian":[4.516528E3],"tree_param":{"num_deleted":"0","num_feature":"1253","num_nodes":"1","size_leaf_vector":"1"}},{"base_weights":[-0E0],"categories":[],"categories_nodes":[],"categories_segments":[],"categories_sizes":[],"default_left":[0],"id":135,"left_children":[-1],"loss_changes":[0E0],"parents":[2147483647],"right_children":[-1],"split_conditions":[-0E0],"split_indices":[0],"split_type":[0],"sum_hessian":[4.5259043E3],"tree_param":{"num_deleted":"0","num_feature":"1253","num_nodes":"1","size_leaf_vector":"1"}},{"base_weights":[-0E0],"categories":[],"categories_nodes":[],"categories_segments":[],"categories_sizes":[],"default_left":[0],"id":136,"left_children":[-1],"loss_changes":[0E0],"parents":[2147483647],"right_children":[-1],"split_conditions":[-0E0],"split_indices":[0],"split_type":[0],"sum_hessian":[4.4927446E3],"tree_param":{"num_deleted":"0","num_feature":"1253","num_nodes":"1","size_leaf_vector":"1"}},{"base_weights":[-0E0],"categories":[],"categories_nodes":[],"categories_segments":[],"categories_sizes":[],"default_left":[0],"id":137,"left_children":[-1],"loss_changes":[0E0],"parents":[2147483647],"right_children":[-1],"split_conditions":[-0E0],"split_indices":[0],"split_type":[0],"sum_hessian":[4.496078E3],"tree_param":{"num_deleted":"0","num_feature":"1253","num_nodes":"1","size_leaf_vector":"1"}},{"base_weights":[-0E0],"categories":[],"categories_nodes":[],"categories_segments":[],"categories_sizes":[],"default_left":[0],"id":138,"left_children":[-1],"loss_changes":[0E0],